<?xml version="1.0"?>
<opencv_storage>
<opencv_ml_svm>
  <format>3</format>
  <svmType>C_SVC</svmType>
  <kernel>
    <type>LINEAR</type></kernel>
  <C>2.5</C>
  <term_criteria><epsilon>9.9999999999999995e-07</epsilon>
    <iterations>100</iterations></term_criteria>
  <var_count>324</var_count>
  <class_count>10</class_count>
  <class_labels type_id="opencv-matrix">
    <rows>10</rows>
    <cols>1</cols>
    <dt>i</dt>
    <data>
      0 1 2 3 4 5 6 7 8 9</data></class_labels>
  <sv_total>45</sv_total>
  <support_vectors>
    <_>
      0.00519519998 0.315128505 0.305376589 0.0793758333 0.0100253513
      0.00381092448 0.00821939297 -0.00424496364 -0.103970595
      0.00321729225 0.0395944193 0.0984567776 0.0248216819 0.00378229283
      0.0122095924 0.0206566546 -0.0412721448 -0.0436634459 -0.105687216
      0.00118746411 0.0134801585 0.173442706 -0.0781667531 0.0201085228
      -0.00997963455 0.0196158644 -0.313348919 -0.00585846184
      0.126151487 0.213460103 0.0966330022 -0.0327548347 0.00552520715
      -0.00553774321 -0.180506006 -0.121688388 -0.00673988136
      -0.113450341 -0.0019346351 0.0140428897 0.00668596802 -0.013484586
      0.00490978826 0.113147579 -0.119634487 0.072844483 -0.150080904
      -0.00435720198 0.00517478585 -0.0186544731 -0.0569806919
      0.0412854664 0.265979588 0.180543035 -0.037294019 -0.000768970523
      0.127832904 0.0120216049 -0.0587656014 -0.0267154519 -0.0757137612
      -0.098190017 -0.0272192303 0.159080908 -0.0107406368 -0.0528092906
      -0.0492356978 -0.120562725 -0.0877637938 -0.0937591866 0.176967904
      0.138501152 0.0994128659 -0.041235555 -0.0111960489 -0.012933203
      -0.0592023209 -0.0626326129 0.048283495 0.131562844 0.210529849
      -0.0957936794 -0.0174440891 -0.0040606726 0.00381429563
      -0.00510004722 0.0249444433 0.404327959 0.256860763 0.188573271
      -0.0473222658 -0.0962940082 -0.0558014251 -0.0424091704
      -0.130446255 -0.0373826027 -0.0782728717 0.0839113668
      -0.0589434132 -0.112061128 0.0564194918 0.0137345688 0.0521667935
      -0.117375046 -0.0658602118 0.193923295 0.185514435 -0.044999335
      -0.186389744 0.0747384354 0.0533441231 0.22509338 -0.114105046
      0.0364730693 -0.184267238 -0.010019117 -0.112840824 -0.101789504
      0.433175027 0.419094115 0.309681892 -0.0967704356 0.120062307
      -0.0526925065 -0.0547310896 -0.145921782 -0.293314457 -0.069393523
      0.0657868385 0.422495753 -0.0196448024 0.000845088332 -0.150570452
      0.0820758492 0.0240184441 -0.0721755773 -0.088829793 0.0279730465
      0.218849882 -0.136916891 0.17742072 -0.070456326 0.259508848
      -0.048453562 -0.103844464 0.329417288 0.137682155 0.00323042204
      -0.173141688 -0.0143564828 -0.0762719065 -0.0896590352
      -0.0775815547 -0.0210052691 0.108101822 -0.00709663006
      -0.0411525927 -0.158487439 -0.0445993133 -0.0668431073
      0.0395590737 0.139630958 0.0760432854 -0.00579426577 -0.081760928
      -0.0942339376 -0.288734972 0.0539885685 -0.100740761 -0.0223749951
      -0.0157485101 0.068056874 0.074607566 0.0625482351 -0.00423261616
      -0.0285542943 0.00798234809 -0.0236203 -0.0485556945 0.0745266005
      -0.0882570297 0.100624584 0.0690235496 0.111455187 -0.0358143784
      0.219743058 -0.00362250325 0.29423812 0.0198099222 -0.131431118
      0.118313611 0.0378378108 0.231090963 -0.0730243474 0.0671203509
      -0.224713743 0.0903693661 0.192221761 -0.10369385 0.243896455
      0.377749056 0.269726008 0.154966414 0.218186051 0.0419471264
      -0.0160285849 -0.230079085 -0.19797194 0.0493381396 0.19325906
      0.348214626 0.175825521 0.354943126 -0.135662183 -0.0631505996
      -0.547603786 -0.416889131 -0.28033793 -0.0309975818 0.108872622
      0.0711715221 0.135455102 0.166860685 0.0534504168 0.0320837349
      -0.0192654785 -0.319918096 -0.215344012 -0.000348388829
      -0.119532332 0.0170636978 -0.0803922191 0.138790622 0.0355265588
      -0.408315748 -0.17351 -0.021945063 0.0150221866 0.0365841761
      0.10661865 0.359080374 0.388801813 0.156653538 -0.0357106365
      0.0392517559 -0.0335137099 0.0170683768 0.0112816906 0.0176358595
      0.0903367028 0.418663085 0.0599382184 0.00379090034 -0.21666947
      -0.161413327 -0.0738285109 -0.0594012327 0.0346103944
      -0.00514069665 -0.0267289653 0.0312363748 0.0195282847
      -0.0590748973 -0.0828602836 -0.022300506 0.0162754692 0.0207563788
      -0.0194163062 -0.0237302314 0.0304549951 -0.0386176929
      0.0486716293 -0.0220086668 -0.00168392842 0.0126723507
      0.0122161293 0.0389465131 0.0948850363 -0.0339143053 0.146063134
      0.229165167 -0.010778971 -0.00883049052 -0.00885687023
      0.00246051094 -0.00709950086 0.0495644845 0.146541893 -0.140081733
      0.104086831 0.117488578 0.0670494661 0.0268717203 0.00433444232
      -0.0442978963 -0.137923554 -0.225382119 -0.145994142 0.230705023
      0.57195127 0.255843371 0.0663330331 0.0487110317 -0.0191099551
      -0.118016131 -0.57230252 0.0952925459 0.341114998 0.0527304336
      0.00135136023 -0.0444229767 -0.0198549852 -0.0362991504
      -0.0315514728 0.124171823 0.0463398211 0.638044953 0.361201376
      0.074340865 -0.0256552938 -0.0191521924 -0.0390333682
      -0.0502701737 -0.203899592</_>
    <_>
      0.0594970733 0.0327032208 -0.0341398045 -0.0213224962
      -0.0070701791 0.0219267532 -0.00070756895 -0.0159363747
      0.0215155613 0.107822515 0.163486093 0.0544602945 0.0206596889
      -0.0930535048 -0.0518847182 -0.055692371 -0.051351238 0.0151958363
      0.0286689717 0.00162656885 -0.0524757802 -0.00158505281
      0.0134134544 0.036551822 -0.0330560729 -0.0575161092 -0.0129431859
      0.0767983571 0.0687442347 -0.0438392311 -0.0302575603 -0.101258174
      -0.0543316342 -0.0573409125 -0.0654707476 -0.0170350168
      0.187648654 0.171501338 0.0198530331 -0.0388260745 -0.195889488
      -0.148729533 -0.100894026 -0.0298329554 0.0644371882 0.14421162
      -0.0208437201 -0.105110027 -0.0824840888 -0.132399812
      -0.0566255376 -0.00106321904 0.131866932 0.264513105 0.066450268
      0.0696732998 -0.0235848576 -0.0573781505 -0.186437979 -0.140896678
      -0.052280657 -0.00173705863 -0.00492590014 0.0910826847
      -0.041478686 -0.0826856792 -0.128162727 -0.169838935 -0.0527077988
      0.0183047298 0.13632001 0.192815676 0.0503954515 -0.124079309
      -0.109057613 -0.0496590771 -0.0269827209 0.00252032606
      0.0367699787 0.177384019 0.231180787 -0.137900591 -0.0933526829
      -0.0729440227 -0.0291901454 -0.00991001725 -0.0215749443
      0.0440345109 0.163505524 0.0710273832 0.0614897646 -0.218642905
      -0.164094239 -0.114798948 -0.00895831268 0.0483413264 0.0604257435
      0.202152044 0.139939055 -0.150007367 -0.141520962 -0.117579788
      -0.0382308289 0.0445875116 0.0674906522 0.0331154801 0.0857173875
      0.0556273907 0.0207272712 0.0392472558 -0.0157932714 0.0391634032
      0.0466924384 0.0219070781 -0.0272656046 -0.089958556 -0.0841179565
      -0.0087861577 0.00361982617 -0.00363937416 0.0248580053
      -0.00682279747 -0.0243085492 -0.0181963574 -0.0167645328
      -0.00483164331 -0.038561292 0.00865375903 0.0717726424 0.114560716
      0.0974870399 0.0775507614 0.0468409956 0.0153080691 -0.0844308957
      -0.0643595681 -0.0524534844 0.00288455468 0.0227078758
      0.0348948166 0.0242606867 0.0667200387 0.0230082031 -0.0173946805
      0.00361351529 0.0211763568 0.00894323364 0.0296096988
      -0.00921997707 -0.00958408229 0.00727799535 0.0286977794
      0.049781166 0.0161720552 -0.0540605783 -0.0096770972 -0.030785244
      -0.0177376997 0.00462317467 0.0158374514 0.0837402195 0.128508225
      -0.0251751505 -0.04398809 -0.0105073517 0.0134471953 0.0159501377
      0.00749216834 0.0299207978 0.0638621524 0.0517707579 -0.011477245
      -0.0516090207 -0.0525672622 -0.0304329842 -0.00191152235
      -0.00150456931 0.00610955432 0.011286254 0.0300481077
      -0.0176019371 -0.132439613 0.00473483698 -0.00795308966
      0.0137681598 0.0505141132 0.0255511235 0.100163221 0.0874363333
      -0.051713191 -0.0154438308 0.0493575409 0.0837717205 0.0865321606
      0.0882901698 -0.0152603276 0.00895665959 0.0410437919
      -0.0099438196 0.00283500738 0.0139819551 -0.0185776278
      -0.0519915111 -0.0221593939 -0.040610332 -0.0854521096
      -0.0827008858 0.00605923776 0.161528572 0.0885216594 0.0552747697
      -0.0236807484 -0.0166773647 -0.108622797 -0.132103175 -0.154161587
      -0.074517943 -0.0588509589 0.00399009604 0.0329212397 0.0379248932
      0.117264487 0.109992579 0.0351221785 -0.0836690292 -0.0803838521
      -0.0977658778 -0.0502269976 0.0005835552 0.0190434568 0.0463851839
      0.106290199 0.0720904768 0.00302695809 -0.0975857899 -0.0484983288
      -0.0118674701 0.00538017275 0.00645903591 0.0463967733 0.126621678
      0.147289842 0.030747477 0.00427109329 -0.0334227234 -0.0332306586
      0.000980986981 0.00393073028 0.0207947847 0.0694326758 0.157394081
      0.067237556 -0.0471370593 -0.0573913641 -0.0221753009
      -0.0156249246 0.00254163425 0.0216471069 0.0522953793 0.0741780177
      0.0645520762 -0.0148043465 -0.0417808406 -0.0617512763
      -0.0896355063 -0.080437623 -0.0211917013 0.00191104237
      0.0107768513 0.0942684114 0.0471979827 0.00265530031
      -0.00525690336 -0.00889571663 -0.0271782279 0.00405394612
      0.0333066583 0.0583883598 0.124588363 0.115926899 0.0556548461
      -0.00145012117 -0.0811880305 -0.137321219 -0.0871812776
      -0.039154388 -0.00721453084 0.136816472 0.149018094 0.103093803
      0.053656105 -0.07904993 -0.117028564 -0.0841180012 -0.0877009481
      -0.0922782794 0.0213231891 0.0803621709 0.193114087 0.136427253
      -0.0399314798 -0.141202793 -0.153322592 -0.14710246 -0.136266291
      -0.0959154144 0.177408651 0.143360421 0.0484476946 -0.0738590211
      -0.154815927 -0.146743312 -0.144640505 -0.0919937491 0.0487370007
      0.0900822654 0.116918832 0.051701244 -0.0546899438 -0.124560669
      -0.196008444 -0.200600788 -0.1590271 -0.117457069</_>
    <_>
      -0.0116905868 0.0896136984 0.143473923 0.0277971122 -0.0340876766
      -0.0257850327 -0.0326767713 -0.0572721697 -0.153850421 0.201720744
      0.296890736 0.098212257 -0.012960894 -0.146675318 -0.116707809
      -0.107624069 -0.116851315 0.00821534358 -0.00484118424
      0.0200150162 0.0368643068 0.0321694724 -0.102084719 -0.109912306
      -0.0787907541 -0.0766305774 -0.0954396203 0.129190788 0.163371056
      -0.0328521356 -0.144683123 -0.20678103 -0.16472277 -0.0862834528
      -0.0988032371 -0.0164003428 0.327616751 0.0755119026 -0.067649737
      -0.109263673 -0.191264629 -0.116943136 -0.0765126869 0.0210752338
      0.223961964 0.140645817 -0.122252755 -0.199745238 -0.114446647
      -0.122674227 -0.0154400468 0.062238846 0.234263599 0.280033886
      0.121354818 0.102814794 -0.0832274407 -0.0826018974 -0.227464199
      -0.189584911 -0.128376767 -0.0457542688 -0.0154281119 0.127515823
      0.0113890339 -0.0527478755 -0.0906421617 -0.208136111 -0.137089372
      -0.186647847 -0.0214452129 0.0639930591 0.0638809353 -0.177964777
      -0.093608588 -0.0446250588 -0.0495081134 0.00179931638
      0.0187060609 0.0718204677 0.192757994 -0.0735035911 -0.102056406
      -0.10358578 -0.0962277874 -0.0468954332 -0.0264933314
      -0.0234146528 0.124217048 0.13815923 0.0831616372 -0.143018737
      -0.115960062 -0.0851224586 -0.101002336 -0.0561869256
      -0.0829930529 0.028650105 0.096968025 -0.0828432143 -0.135426849
      -0.153431371 -0.13379465 -0.0608106963 -0.0424557924 0.0593063794
      0.143013939 0.0881522521 0.055500906 -0.0400740206 0.0869932473
      0.0147475079 -0.0396795347 -0.0333116204 -0.0636304021
      -0.0804046094 -0.0328132696 -0.00238123839 0.0282222144
      -0.0290642679 -0.0245635826 -0.0522426702 -0.0353264883
      -0.0266003087 -0.0378814004 0.0377211049 -0.00914487522
      -0.0299291424 0.0487151295 0.0551306531 0.0353556015 0.114944793
      0.108902097 0.0284944456 -0.0506452844 -0.130464315 -0.107585631
      -0.0659637228 0.005864623 0.0544227436 0.106454574 0.0755604953
      0.0961636677 0.0477887765 0.0656452999 0.0947690159 0.0128289498
      0.0771926567 0.0136382449 -0.0216156468 -0.116586246 -0.0938203856
      0.0765380114 0.152482778 0.131506935 0.109854028 0.0763291419
      -0.0375365838 -0.0837544352 -0.272143096 -0.0895218924
      0.0740612075 0.118219689 -0.0172686279 -0.0401493199 0.0371848531
      0.0166674834 0.0164167508 -0.147269547 0.0712021291 0.102361038
      0.153191581 0.0914954543 0.0994696915 0.0522096977 -0.010972715
      -0.0660485029 -0.290984243 -0.166948035 0.00151813461 0.0532744452
      -0.0229017362 0.0272711329 0.00964798592 -0.0549884774
      -0.0246645045 -0.104507133 -0.00195466424 0.0728917718
      -0.0516973697 -0.0641934872 -0.0368410461 0.0232946277
      0.0241348818 0.0533686951 0.0197316557 0.0673651174 0.141027093
      0.00218264153 -0.00561919995 0.120534003 0.0475641116
      -0.0132313501 -0.0152065139 -0.154677153 -0.207062364 -0.084017612
      -0.0426197462 -0.0523311868 0.0276071541 0.0944939479 0.0734935105
      0.0388162434 0.00714516873 -0.0194323584 -0.0743238255
      -0.0931443572 -0.0952215046 -0.0175309591 0.0178464446
      0.0204319265 0.129386574 0.229668409 0.0450518578 -0.0269252956
      -0.0166823398 -0.130146489 -0.0867595524 -0.00429455005
      0.0209088288 0.0525821261 0.105496034 0.0865650773 0.0420493186
      -0.164826035 -0.0990287066 -0.0304854941 -0.00458518136
      0.00316590839 0.0357189626 0.0940925702 0.136481956 -0.0137696192
      -0.0783329979 -0.100063652 -0.0718505085 -0.00833581015
      0.00372138433 0.0148930606 0.102357887 0.166297242 0.0820006952
      0.123451509 -0.0566462539 -0.0954294279 -0.0214813482
      0.00652270531 0.0165313613 -0.0779608041 0.0470262505 0.116578527
      0.102973133 0.120607361 0.0503238775 0.0044736634 0.00385497068
      -0.0296493117 -0.220345408 -0.202977836 -0.00147931965 0.125392824
      -0.0598148778 -0.0718143284 -0.0187982265 -0.0101923924
      -0.0051457677 -0.00585535169 0.02299539 0.150531381 0.0834318995
      0.192668274 0.0378655903 0.00480270013 -0.00700540096
      -0.0228059441 -0.134190291 -0.151516914 0.0769720823
      -0.00867832825 0.0322838314 0.139733076 0.0249034278 0.00966121163
      -0.0146895116 -0.0947455168 -0.211252183 -0.133865938
      0.00689235376 0.016526483 -0.0475139022 0.0155110564 0.0105272522
      -0.00436057942 -0.0293431114 -0.0362916477 -0.137293398
      0.0963508263 0.183919847 0.0577827208 0.0113244215 0.00547779957
      -0.00142154773 -0.0402311161 -0.0776883736 -0.0431962945
      0.0768983439 0.0862629041 -0.0027359277 -0.0429449938
      -0.00566385407 0.00141771312 -0.0122533832 -0.0208069794
      -0.0547305681</_>
    <_>
      0.351887196 0.250677854 0.0332772061 0.0124483788 -0.0276260059
      -0.00273048552 -0.00368458615 0.00109546736 0.0512647927
      0.127562895 0.0111047132 -0.291704953 -0.0560691804 -0.0325996205
      0.00437240349 0.0168674588 0.0334826782 0.170453534 -0.0371972919
      -0.00422614161 -0.149349153 0.0484018214 0.0208162516 0.0315146446
      0.0143632991 -0.0139513714 -0.0832923055 -0.00137483806
      0.0491988435 -0.277441919 -0.119673118 -0.0456130505 -0.0222232342
      0.00393231912 -0.0909074545 0.00320220063 0.0807524472
      -0.0158547629 -0.24947688 -0.0252331253 -0.00320813572
      0.00780684268 -0.0253318585 0.0781234279 0.328131109 0.0442716368
      -0.252006859 -0.0951425061 -0.00317779905 -0.017865682
      -0.062648572 -0.0885491073 0.21809876 0.142882437 0.0323811397
      0.0844343901 -0.0988942832 -0.0224990007 -0.0147714335 -0.04257394
      -0.0851925686 -0.0704493523 0.0617477968 0.153125063 0.00411673542
      0.0465256572 -0.0236759987 -0.117012277 -0.230084077 -0.271797299
      0.00686544459 0.0985953361 0.0408755839 -0.0636678338
      -0.00769662252 0.00561126648 -0.0810852945 -0.229650423
      -0.170486346 0.140885085 0.189301908 0.0253811143 -0.071377933
      -0.0210126042 -0.00539842015 -0.272813082 -0.350091875
      0.00487408601 0.289846689 0.396801621 0.211561218 0.0159493443
      0.0512740202 -0.0246557929 -0.18701984 -0.274591297 -0.187026531
      0.140557677 0.198754579 -0.0476773828 -0.131034315 0.0529634058
      0.0479340479 -0.191892326 -0.159646973 0.120024107 0.30677101
      0.33600688 -0.192731082 -0.0439515971 0.0620477311 0.138214216
      0.151237205 0.0721763149 0.0469982475 -0.0224056691 -0.11243546
      -0.109044723 -0.00200589839 -0.0645231679 0.000357921934
      -0.00947733689 -0.0303994268 -0.010138833 -0.0887127519
      -0.106098413 -0.253950059 -0.185713381 -0.0873949453 0.0309237577
      0.147549614 0.213915095 0.258633047 0.116007917 -0.050062716
      -0.208862185 -0.13093248 -0.0588592291 -0.0310881063 0.0163089465
      0.100930557 0.22213684 0.217560664 0.0417963192 0.0773525611
      0.104764327 -0.0963885933 -0.0518785417 -0.0884456187
      -0.0882343724 -0.10856127 -0.128834024 -0.0460845269 0.12838535
      -0.0171662234 -0.0776424184 -0.152223095 -0.152913421 -0.197328761
      -0.148235813 -0.00989104062 0.0425695851 -0.024551576 -0.109417088
      -0.0878202543 -0.069464013 -0.0692413822 -0.0336538926
      0.0392749384 0.0804025456 0.0979798585 0.12139494 -0.045047868
      -0.0903670713 -0.127197057 -0.0347115919 -0.0527329966
      -0.0826673657 -0.0561527647 0.174610689 0.0076920921 -0.10672038
      0.0712125599 0.016996948 -0.047081124 -0.105816022 -0.0507093221
      0.203483433 0.130496249 -0.312744886 -0.170505404 0.229536563
      0.352456331 0.166947737 -0.00420313189 0.0322702266 0.142305166
      -0.0538088791 0.0194360837 -0.0347925834 -0.00963902473
      0.0379631035 0.0908907652 -0.0373744071 -0.0595680103
      -0.0126263611 0.0814534351 -0.231295004 -0.0537060611 0.176765159
      0.383067161 0.328597456 0.00933159422 -0.0634993985 -0.0666351393
      -0.285858154 -0.185704529 -0.168672338 -0.13078633 -0.159647897
      -0.158096239 0.0872734413 0.18777594 0.215962723 0.0915900469
      -0.114848517 -0.214856967 -0.200166509 -0.155088276 -0.168245241
      0.0167932492 0.0815501139 0.187716916 0.141364545 -0.0779892206
      -0.0216344148 -0.0263283309 -0.0895215496 -0.164640531
      -0.0883429945 0.0886725187 0.340124339 0.367283463 0.0686570555
      -0.161359444 -0.0684642494 -0.0919910818 -0.16983442 -0.165832847
      -0.120465524 0.208877102 0.120289102 0.000319306157 -0.0920043066
      -0.0591072179 -0.0324611738 -0.0445855483 -0.0357622989
      0.00946052559 0.104500949 0.0614965111 0.0777378753 0.0593032502
      0.0939812288 0.0021416645 0.0193027481 -0.0302124079 -0.106444895
      -0.0487246551 -0.0203559473 0.0171225537 -0.042457711
      -0.0148497829 -0.0147368414 -0.0699759871 -0.0988276601
      -0.102855027 0.0505323932 0.171043888 0.0904213339 0.175707847
      0.0389815979 0.0146613428 -0.0101970974 -0.0411110669
      -0.0932672322 -0.097352691 -0.0282059498 0.098596856 -0.0141574405
      -0.090018779 -0.1164895 0.00347709074 -0.0333271399 -0.0869771317
      -0.0561961569 -0.0180593692 -0.13631092 0.0379461758 0.0888193324
      0.00289634406 -0.0019798365 -0.0426221155 -0.0103164017
      -0.0210309289 -0.152020559 0.199372545 0.117478698 -0.114534222
      -0.142828912 -0.0301194917 -0.0101517141 -0.0443383344
      -0.0496324971 -0.0680259913 0.194955617 0.220034674 0.0429293066
      -0.104793966 -0.054730814 -0.0273043793 -0.00146228366
      -0.00326478458 -0.0166097302</_>
    <_>
      -0.00378803886 0.0845069736 0.0650985092 0.00577808497
      -0.00144560775 0.000591283082 0.00513790082 -0.00371678546
      -0.0883969665 0.00512247952 0.104763195 0.0138701331 0.00242073741
      -0.0140497973 0.0029290067 0.00271813083 -0.0064328718
      -0.044850722 0.0156007409 0.0112667549 0.0565287881 0.0199887957
      -0.0209684111 -0.000463227741 0.0390674546 -0.00184089702
      -0.101241447 0.0113204457 0.0997998565 0.0206548404 -0.0161709897
      -0.0658750013 -0.0365177803 -0.0129296742 -0.0789842084
      -0.0813122839 0.0305485819 0.0237469468 0.0370331071 0.00575394928
      -0.0454775356 -0.0415529907 -0.0338900574 -0.0147165619
      0.0186294075 0.0563516058 0.0438589826 -0.00247419183
      -0.0356702022 -0.0859505162 -0.082931295 -0.0445491374 0.084610939
      0.0940988511 0.0277671907 0.107649341 0.0167358946 -0.0193112958
      -0.0739390105 -0.0869515315 -0.0509972461 -0.0336575806
      -0.0345993601 0.0844729319 0.00568759954 -0.0935929641
      -0.0854830816 -0.100860409 -0.0874150321 -0.0485467128
      0.0712795183 0.139206752 0.0201109089 -0.0679722652 -0.0711078718
      -0.0560188778 -0.0716673881 -0.119594418 -0.116542496 0.110746175
      0.145782441 -0.160432428 -0.218010768 -0.080648765 -0.0250873566
      -0.0153020537 -0.0631230623 0.0128552848 0.152450502 0.178123951
      0.118902229 -0.153837204 -0.184239939 -0.172509149 -0.0834497735
      -0.0583466962 -0.0621785782 0.141048267 0.187143832 -0.107278243
      -0.227411941 -0.214582875 -0.162585273 0.00274169119 0.0677520409
      0.121731639 0.194094867 0.176595643 -0.0310663022 0.000207468111
      -0.0219538268 -0.0615386628 -0.0525289588 0.00644097291
      0.0530046858 0.013615597 -0.0381991155 0.0284916814 0.0812854245
      0.0101991137 -0.0635243133 -0.0796732083 -0.0922603011
      -0.0870004967 -0.111240603 -0.0833693966 0.0314004272
      -0.0218996387 -0.0969540626 -0.0861298144 -0.0475953817
      0.0558388531 0.160363555 0.14488335 0.0652092993 0.0919524729
      0.0522664823 -0.00513314083 -0.0848590359 -0.062359605
      -7.99614827e-06 0.0578992292 0.0767402798 0.0728977025 0.168960392
      0.174942896 -0.0173669513 -0.0904420614 -0.131815255 -0.124365285
      -0.0992220491 -0.0679769441 0.0319572091 0.195119336 0.0442310311
      0.028895909 -0.100604489 -0.058233764 -0.0254638437 -0.0441265255
      0.0263134502 0.137819409 0.206829771 0.194830954 0.0016835985
      -0.0991775095 -0.0928974152 -0.0957393199 -0.0808434933
      -0.0642177388 0.0640614256 0.0433759987 0.0666678771
      -0.00947560091 -0.0671237335 -0.0543825403 -0.0782893375
      -0.146010235 -0.168858066 -0.0304834377 0.0881832466 -0.112979762
      -0.0840180218 -0.129526854 0.025956165 0.0676274151 0.0195486173
      0.0951200873 0.136436015 -0.0228002463 -0.0683917701 -0.0939051509
      -0.0648150742 0.10568618 0.129905283 0.0938922688 0.0998773053
      0.143987611 -0.0721158162 0.030186303 -0.020508172 -0.0653511807
      0.0319511555 0.0283039194 -0.0285838079 -0.0436263531
      -0.0263691824 0.00132508727 0.000284934562 -0.00575452158
      -0.00149347738 0.119682491 0.0865172446 0.0307822898
      -0.00152130658 -0.0192626137 -0.0978645533 -0.171664193
      -0.20257692 -0.199724644 -0.12487565 0.064148955 0.210692763
      0.226869702 0.12614803 0.113587871 -0.00518888561 -0.0750303119
      -0.130204603 -0.0882638618 -0.024678167 0.00930352416 0.0622618645
      0.111785695 -0.184724882 -0.219231576 -0.253319442 -0.125242963
      -0.0326368697 0.0407901295 0.160735086 0.175240055 0.0992064923
      0.104324989 -0.0742787123 -0.153522283 -0.0983813852 -0.0709849745
      -0.0303065982 -0.0385173671 0.102102973 0.103306018 0.0842081308
      0.130028397 0.0900468305 -0.0137840947 -0.0613553412 -0.0478519574
      -0.0721245855 -0.0899415538 0.0269274227 0.0050944495 0.0982560292
      0.103394978 0.0302552003 -0.0157964919 -0.0528027825 -0.127539083
      -0.168451965 -0.0924583524 0.0359240882 0.0266217478 0.054312326
      -0.00982561149 -0.0396954045 -0.00756029086 -0.0320685878
      -0.0730782077 0.109189034 0.0738326386 0.0502743274 0.0864045173
      0.0299998298 0.00798949506 0.00452614529 -0.0214190874
      -0.0246463623 0.0427181497 -0.0149440495 0.0452576838
      -0.00154552667 0.0271433424 0.0086816866 -0.0202875696
      -0.0485679954 -0.0811300576 -0.122365184 -0.066150099
      0.00505905924 -0.0302089304 0.0264329053 0.00473986892
      0.00402917014 -0.02074573 -0.0297647007 -0.0589373223 0.048922047
      0.163711235 0.0801004991 0.022669483 0.00939101074 0.00254116394
      -0.00391118228 -0.0177886058 -0.0404427759 -0.0334117636
      0.103272982 -0.00461362442 0.00838666782 -0.00288447971
      0.00414497964 -0.00171525555 -0.00218571723 -0.0552432872</_>
    <_>
      0.00720847957 0.0569721945 0.0752715766 0.0213980284
      -0.00256766751 -0.000399129931 0.00474173669 0.0087155709
      0.0650131553 -0.0427812859 0.0402017348 0.00560450274
      0.00454934174 -0.0111051602 0.0140423067 0.0356141627 0.0567599274
      0.179204866 -0.0496937633 -0.0798906833 -0.0641213059 0.0628330037
      0.0262120664 0.0191494953 0.0246849433 0.00950856041 0.0356297009
      -0.0798906833 -0.107258439 0.0061644502 0.0503947549 0.0123783257
      0.0329185799 0.0175749268 0.00315544195 0.0313718021 0.0114496369
      -0.0136624938 -0.0191163514 0.00273478194 -0.00574805913
      0.0167436991 0.0260617267 0.0707857013 0.152042389 -0.0677973107
      -0.0202824529 0.000589287025 0.0051034661 6.08826304e-06
      0.00357094803 -0.0277604498 0.0154463379 0.0104242479
      -0.0533717424 -0.0472472869 -0.0371676721 0.00134676707
      0.00311918254 0.0208665673 0.02715341 0.0467513315 0.0382614881
      -0.0114591327 -0.145785928 -0.0951062441 -0.0217719022
      0.00339523982 0.0180307832 -0.00850274041 0.0576883145
      -0.0117077371 -0.0115566244 -0.00477275206 0.00401826948
      0.00256916392 -0.00584244262 -0.0235645194 -0.122983135
      0.0111085186 0.0172908455 0.0361762866 0.00581638748 0.00102842331
      0.00385736255 -0.0165064465 -0.0430432633 -0.028229164
      0.0547200181 0.171080291 -0.039467562 -0.0952531695 -0.0224136859
      -0.00865025446 -0.0185208004 -0.0481193475 -0.18133606
      0.0482342504 0.01094657 0.0362631418 -7.84203366e-05 0.00744765671
      0.0187982414 -0.000575153681 -0.0298808627 -0.0089601893
      0.0141692432 0.0586799048 -0.0795158446 -0.070026949 0.0212590378
      0.121726401 0.131180152 0.112007335 0.0921677053 -0.00336114503
      -0.148308218 -0.0154843284 -0.0150242299 0.0610498674 0.181268603
      0.11871089 0.0154796541 -0.116480827 -0.082159251 0.0181760192
      -0.257552654 -0.127959922 -0.0247453377 0.0879412666 0.0784573182
      0.0661146417 0.212878287 0.214049369 -0.0788162276 -0.0369481705
      -0.0613457635 0.0358744115 0.120310627 -0.0598617271 -0.0819237605
      0.0121148173 0.145153388 0.0862221643 0.147532195 0.100668661
      0.00483878376 -0.0223577339 -0.0844932795 -0.0873021185
      -0.0664156973 0.0244317763 0.164999962 0.0297087971 -0.0552636981
      -0.139274657 -0.160845026 -0.12987417 -0.0648724288 -0.0518375337
      0.0712517127 0.105492301 0.22768271 0.119470097 0.00730264466
      -0.05162609 -0.224422038 -0.223846391 -0.0947408825 0.120043837
      0.273253292 0.0819097981 0.109699555 -0.0251689106 -0.132668689
      -0.272348762 -0.276922166 -0.240772888 -0.03309986 0.103439167
      -0.00612126803 -0.0880193859 -0.0412534103 0.0037535117
      -0.00261243992 0.0100620175 -0.044746466 0.0942701027 0.0269252323
      -0.0075713289 0.00391165074 0.0325714648 0.104843184 0.126125783
      0.0681304634 -0.0164313149 0.0467250571 -0.059721604 -0.048491437
      0.00896410644 0.0686464086 0.0827997699 -0.0476301499
      -0.0653855354 -0.147411153 -0.111576974 -0.0338431709
      -0.0782711878 0.0286724586 0.145019308 0.130896166 0.101888806
      0.000705178769 -0.100873537 -0.167130232 -0.0893643647
      -0.143659011 -0.19644554 -0.08823511 -0.0447270125 -0.152149975
      -0.0471372083 0.195243359 0.339758605 0.129664168 0.112892903
      -0.0935249776 -0.0566853099 -0.069544062 -0.279246777 -0.267433673
      -0.0568158291 0.0802830011 0.298830748 0.00301649026 -0.0651831254
      -0.0390975103 -0.0362069383 -0.0835003704 0.0276638009 0.105437651
      0.305373996 0.23276329 0.237196282 0.0119800931 -0.0157350861
      -0.0348874964 -0.156078339 -0.166923687 -0.140343696 0.0243228283
      0.350506008 0.320471227 0.0862552449 -0.0046503339 -0.0314581245
      -0.208431482 -0.275161386 -0.136517435 0.0249080695 0.247986019
      0.096814543 0.18409504 0.0558241829 -0.0194143988 -0.179956377
      -0.217966124 -0.30976674 -0.150672421 0.037983723 0.282482147
      0.0673571602 0.0155285606 0.00620909408 -0.0434528738
      -0.0451738164 -0.170076028 -0.020970678 0.187182128 0.07605014
      0.136907712 0.0563943386 0.0128961438 -0.0628699735 -0.100970335
      -0.145466074 -0.158126116 0.0716736689 -0.0155264735 0.0741651431
      0.141535297 0.0808020979 -0.0943542719 -0.0956343338 -0.131725445
      -0.0958163738 -0.0963584259 -0.0627151802 0.0119022615
      0.0516653769 0.105271958 -0.0511567406 -0.0415612273 -0.0587710552
      -0.0815867335 -0.0828107521 0.0547203161 0.14199236 0.121081449
      0.0288905986 -0.0131603731 -0.0474652536 -0.0687571391
      -0.0947762132 -0.115124606 -0.0208733361 0.0456655882 0.0437440425
      0.0824691504 -0.0123169469 -0.000537375628 -0.0281560086
      -0.0707579777 -0.120184734</_>
    <_>
      0.0570566468 0.0248483941 -0.0149450032 0.0148018813 -0.0141496472
      -0.0309963804 -0.0552583523 -0.0612741597 -0.0120657627
      0.129476815 0.273839802 0.054140348 -0.023383595 -0.0684238821
      -0.0926098004 -0.107159451 -0.0756412223 -0.00331142335
      0.0320847705 -0.000349022303 -0.0825633258 0.0165769495
      -0.078207083 -0.005334449 -0.0722545758 -0.0511195771
      -0.0410862528 0.103772163 0.116435811 -0.108055584 -0.132517442
      -0.150066972 -0.122175373 -0.0905192792 -0.077243045 -0.065142259
      0.155457452 0.210915104 -0.0236308482 -0.100696065 -0.0635345355
      -0.0565192215 -0.123047687 -0.0118142813 0.111220568 0.03954418
      0.00908940937 -0.0769747421 -0.0836067721 -0.0425981395
      -0.0555291548 -0.112419732 0.0966633335 0.121154785 0.119119048
      0.0795652196 -0.0666956753 -0.101362236 -0.174562216 -0.100158893
      -0.073324278 -0.0465011187 0.03838728 0.0712825879 -0.0181725565
      -0.114094526 -0.264519811 -0.224879354 -0.0422203094 -0.10645622
      0.0232300293 0.0849419013 0.020783579 -0.0800098479 -0.0384543426
      -0.0161662009 -0.0707385167 -0.100599542 -0.114616729 0.129168853
      0.161125943 -0.109200485 -0.11463964 -0.0734415352 -0.0240695439
      -0.0679088905 -0.0423196629 0.0946504027 0.324172288 0.249085665
      0.00455581211 -0.187243521 -0.153232142 -0.128855452 -0.0555472486
      -0.00540083647 -0.132358417 0.0304295477 0.0970373601 -0.243504211
      -0.313032031 -0.193271711 0.00221020984 0.0884867087 0.123260111
      0.092039451 0.195580468 0.0919423848 0.0084246546 0.0414928161
      0.0551507249 -0.0227892064 -0.0486990884 0.0259585418
      -0.0368433408 -0.0664398372 -0.0927010477 0.0538161807
      0.0287328139 -0.0440090224 -0.135182723 -0.103578612 -0.0578930378
      0.0152855571 0.0155530814 0.027382303 0.00646003336 0.108711645
      0.087597169 0.024023803 0.0192026012 0.0953523368 0.0766089335
      0.00947662164 -0.119450577 -0.0968191922 -0.104873858
      -0.0989943221 -0.115763694 -0.0749270692 0.0163819697 0.127699822
      0.0924179554 -0.0427556746 0.120055243 0.0259530228 -0.148491994
      -0.130066887 -0.123848148 -0.043398235 0.0166573972 0.042193763
      0.111471228 0.201397687 0.0298160128 -0.0680368245 -0.205724731
      -0.153738022 0.0221946985 -0.00320197269 0.103110276 0.19137153
      0.0661953688 -0.0339898579 -0.147759482 -0.0997155681 -0.051763989
      0.00596833276 0.0659102052 0.110299915 0.0788464472 0.208988264
      0.040168833 -0.0396108776 -0.0850592032 -0.0743806064
      -0.00420478312 -0.0614889674 -0.0123853777 0.0900980905
      -0.0732118711 -0.1494748 0.00918721594 0.0164990593 0.0664111599
      0.131611407 0.0170989707 0.0849158466 0.0884133205 -0.380763441
      -0.313350677 0.051529903 0.230775446 0.209618092 0.211443156
      0.11589741 0.0733573288 -0.0623984598 0.0119341845 0.0757410526
      0.0144164311 0.0362502635 -0.0724807158 0.00818493031
      -0.0174996089 0.00462712906 0.000801314309 -0.210583121
      -0.0141593432 0.10658282 0.221645296 0.0766065568 0.0674130842
      0.0373147726 0.014714702 -0.0995098278 0.0244267974 -0.018981576
      -0.01080574 0.00823568366 -0.0589567758 0.111962393 0.204709917
      0.0763334632 -0.00563584687 -0.0585638024 -0.140726075 -0.12761797
      -0.0659732223 -0.0423116051 0.0605766326 0.18153818 0.140934914
      -0.0177400373 -0.172713429 -0.164599657 -0.121409781
      -0.00424714061 -0.069604747 -0.00800972525 0.17119582 0.171060428
      0.0782161132 -0.0251335036 -0.209897906 -0.188519463 -0.0510773286
      -0.0383026712 -0.00373958563 0.0429162867 0.238765627 0.0953669026
      0.0189347379 -0.0519849285 -0.090080142 -0.0732766241
      -0.0432022996 0.0362790339 0.0196791552 0.045057632 0.0162546448
      0.132619232 0.0955698192 -0.0268614739 -0.0870901048 -0.0428880118
      -0.00654582493 -0.0753798112 -0.0642003119 0.080454424
      0.0509504713 -0.0908898041 -0.131046355 -0.049922511 -0.0527807549
      -0.00836264621 -0.0373356789 0.0184931159 0.165421292 0.135959446
      0.128639892 -0.000549947436 -0.0323076621 -0.022043081
      -0.00822482724 -0.0829123855 -0.0721977353 0.118904456
      0.0661525428 0.0598840937 -0.100111715 -0.245031297 -0.147128686
      -0.0574074015 -0.0515462756 -0.067152597 -0.0679515377
      -0.0880377814 0.0569693297 0.0978284031 -0.0349473357 -0.136252567
      -0.0318202265 -0.00579477334 -0.017936442 -0.0830598995
      0.186116189 0.111287475 -0.117343932 -0.190491647 -0.0684351251
      -0.0203490946 -0.0315584615 -0.042666778 0.0220536962 0.186255649
      0.285695195 0.154768452 -0.121142581 -0.091676414 -0.00708380667
      -0.003870924 -0.00432565575 0.0228906758</_>
    <_>
      0.0944079012 0.0732671544 0.112630345 0.000310191739 -0.0109834149
      0.0160545632 0.0101426691 -0.0149089051 -0.0530706644 0.0705749094
      0.251288116 0.0524398498 0.0109213162 -0.00324052689 0.0444820784
      -0.035978619 -0.229386911 -0.0348348953 0.0321472697 -0.028893739
      -0.0481180437 -0.0481834225 -0.0302075222 0.0291164219
      -0.0192612503 -0.074347496 -0.090423286 0.0531453788 0.0780974552
      -0.0247045085 0.0431844071 -0.00811413024 0.0389157496
      -0.0438207649 -0.246487603 -0.167994156 0.2141691 0.0754608735
      0.0192574784 0.018788429 -0.00285159284 0.0188343022 -0.0558907464
      -0.122952744 0.140776351 0.060561534 -0.113056287 -0.103050314
      -0.00480796304 -0.00274438504 -0.00631943485 -0.00366428914
      0.278039902 0.139043435 -0.0328687392 0.102591157 0.0333371051
      0.121614233 -0.018122049 -0.027196167 -0.16375573 -0.255735964
      -0.0780534819 0.154476315 -0.0218083933 -0.143790647 0.00365711353
      -0.0666432828 -0.104014963 -0.119571075 0.102234505 0.0238025002
      -0.0878729522 -0.0913372561 -0.0770021453 -0.00651817722
      -0.00341813383 -0.00913623162 -0.0234321114 0.148401946
      0.144663066 -0.0686708465 -0.0435184352 -0.0286890138
      -0.00150850078 -0.000561946596 0.0179085582 0.118009731
      0.132241592 0.141752318 -0.0722560436 -0.220935985 -0.168575361
      -0.0601533763 -0.0297846291 -0.0443229303 -0.123197772 0.155819803
      0.0422711521 -0.215590969 -0.10426373 -0.0728664771 -0.0124252383
      0.0366035365 0.0853905976 0.153876662 0.0654056966 0.0138832135
      -0.00814693701 0.00282890489 0.00134495238 -0.0162418075
      0.0277735945 0.0325596072 -0.0371769555 -0.0450647101
      -0.0914658234 0.0490907356 0.0771394446 0.0195859112 0.0515480973
      -0.0283248238 -0.0604482889 -0.121008001 -0.196059346
      -0.0816838741 -0.0808222592 -0.0548884347 -0.00229434436
      0.0967388004 0.117839947 0.126143798 0.143986985 0.102506749
      -0.0550712273 -0.0824536607 -0.142114565 -0.0911221802
      -0.0241726246 0.0269087423 0.0351949669 0.111550234 0.149554402
      -0.0237763096 0.170284182 0.171511173 0.04118599 -0.0859604627
      -0.171072066 -0.138858974 -0.139784917 -0.158860564 0.0820933729
      0.181404799 0.0129860928 -0.103324905 -0.144792601 -0.22185041
      -0.175332248 -0.174937695 0.0799356699 0.230660737 0.113032714
      -0.0675843433 -0.138778776 -0.223864347 -0.171573803 -0.0824172571
      0.0273972172 0.119321063 0.186291024 0.180006832 0.0306595769
      -0.124137856 -0.206608087 -0.24419874 -0.179422483 -0.132417858
      -0.0991020277 0.161838219 -0.0602525771 -0.182241112 -0.118246898
      -0.080339238 -0.0620476604 -0.0108539704 -0.0544389039 0.156246096
      0.0766056329 -0.204763055 -0.0450952947 0.0844094455 0.0539801307
      0.0978562534 0.181931138 0.124161787 0.0714677051 0.0163681414
      0.0141623169 0.0322573744 0.0334753357 -0.0583005436 -0.0913766399
      -0.066039823 -0.144305021 -0.186966732 -0.189846247 -0.0430357493
      0.0577502437 0.141960889 0.0841946602 0.122302704 0.122913145
      -0.070588991 -0.169565737 -0.260706872 -0.207960084 -0.156873792
      -0.0224034041 0.0310882423 0.0837911963 0.17873992 0.249506474
      0.0817530975 -0.0259308387 -0.102477059 -0.313728511 -0.0922122821
      -0.0108897192 0.0649065524 0.0720274001 0.0706412196 0.138486266
      -0.0251813903 -0.151482075 -0.0734014735 -0.0385291502
      -0.00775646931 0.0122746332 0.0645821765 0.177065447 0.15493308
      -0.00388148078 -0.0918529555 -0.0913982838 -0.0777897313
      -0.0150001645 0.00885951053 0.0383881144 0.113675289 0.291786164
      0.0919391885 0.0221479572 -0.215586409 -0.143166065 -0.0831997693
      0.00189783855 0.0292039942 0.0319530778 0.161550701 0.189266801
      0.077853933 0.0277538784 -0.0328202806 -0.105786711 -0.0708300248
      -0.0851053819 -0.181610361 -0.250108123 0.0730042905 0.0685812384
      -0.158627242 -0.0618203878 -0.00925089885 0.00149736705
      0.0301526804 0.0781325847 0.152834669 0.263705641 0.182338625
      0.103042215 0.0328996852 -0.0018086026 -0.0155870244 -0.0379078276
      -0.12313737 -0.218901947 0.134823889 0.0852901414 0.111299448
      0.154483005 -0.00200742832 -0.0418287888 -0.0749902502 -0.18422851
      -0.363457859 -0.224847093 -0.00660911156 0.129498541 0.142391369
      0.0222015418 -0.021437468 -0.0422996841 -0.103284515 -0.142469302
      -0.245605782 0.148689851 0.286522746 0.094886981 0.0146497991
      -0.0175519623 -0.0376559161 -0.106885806 -0.287903279
      -0.0928521529 -0.00432717986 0.154944122 0.124008149 0.00369598088
      -0.0258060321 -0.0403531156 -0.0633228421 -0.0741692632
      -0.171367839</_>
    <_>
      0.0799971372 0.0850456208 0.0320576504 -0.0077712913 -0.0101355296
      -0.000407684507 0.00641116081 -0.000624018197 -0.0880923867
      0.0699845999 0.200792104 0.0248022117 0.00459318981 0.00108022837
      0.0229725372 0.0122557245 -0.0844016522 -0.0847018808 0.0911086723
      0.0330245271 -0.0890893564 -0.0536068492 -0.0530772097
      -0.0287802871 0.00360331894 -0.0335008912 -0.107295439
      0.0907466039 -0.00681941537 0.00520562613 -0.0449579991
      -0.0418862104 -0.0489112772 -0.013491272 -0.125381246 -0.128866807
      0.11747025 0.167450488 0.0494118705 0.0202126708 0.0012419424
      -0.0228885431 -0.13182573 -0.157321855 -0.0135327559 0.245560586
      0.0755521879 0.0133776208 -0.0147257634 -0.0428470224
      -0.0923337564 -0.114644095 0.05901324 0.1956698 0.0581731386
      0.194295093 0.0785833001 -0.0212812927 -0.111884579 -0.162378326
      -0.152170852 -0.153610379 0.018635761 0.370814711 0.144454122
      0.0310284477 -0.127605319 -0.25735724 -0.33938536 -0.214535847
      0.0188217107 0.15364863 0.0609605238 -0.110100858 -0.0905310512
      -0.0858078524 -0.145796821 -0.116744682 -0.0153372819 0.202598274
      0.238132998 -0.154820725 -0.126964569 -0.0703397393 -0.0536775962
      -0.0609524138 -0.0132492688 0.164181784 0.208260119 0.176593751
      0.107385486 -0.103422768 -0.0938138738 -0.25631392 -0.238670394
      -0.221460879 -0.0920772478 0.0977795869 0.232454315 -0.161744207
      -0.188268915 -0.0918738917 -0.108843081 -0.146074295 -0.061385449
      0.172208562 0.220211446 0.107571334 0.041324582 -0.0124729369
      0.0459364504 -0.0284453649 0.00586929591 -0.0644814149
      -0.0987394378 -0.0945344865 -0.0412250943 0.0888563097
      -0.0234071855 0.0295453984 -0.0593377836 -0.0700633228
      -0.123890176 -0.101716489 -0.12882635 -0.0288098063 -0.0295301359
      -0.00160380814 0.0651898459 0.0675378814 0.0809221417
      -0.0186740477 0.0658066049 0.0158021022 -0.035199292 -0.0943732858
      -0.105070278 -0.0146655953 -0.0365416035 -0.0206781272
      0.0182435308 0.0786670819 0.0998513997 -0.0406900309 0.220495522
      0.126502946 -0.0175607931 -0.171565652 -0.272977531 -0.184626162
      -0.125379071 -0.0434823781 0.178567946 0.254722983 0.0744139329
      0.0266139321 -0.138792142 -0.219489098 -0.204928458 -0.119466081
      0.0854586735 0.265049696 0.0775041729 -0.074411422 -0.0957733616
      -0.200202733 -0.259152204 -0.0787480548 0.0296970047 0.11167416
      0.184408933 0.155733421 0.0219193585 -0.0114893755 -0.0859363079
      -0.149035513 -0.160807326 -0.104918286 -0.0421123467 0.151446164
      0.0125056999 -0.0825117305 0.0125705861 -0.093060106 -0.144171581
      -0.0351572186 0.00717011141 0.140673473 0.195239544 -0.0781177431
      -0.0904853642 0.0902047306 0.0357681736 -0.0160950217 0.075939104
      0.0610779375 0.0893464833 0.153239369 -0.017910298 0.0170230735
      0.0986850858 0.0229989924 -0.0491483547 -0.0444818102
      -0.0567410588 -0.0413310491 -0.00672376342 -0.0273856241
      0.0217269417 0.0878491104 0.0262959246 0.0640845746 0.0545016378
      -0.00329096313 -0.00340549788 -0.0240202025 -0.0738673508
      -0.0636079609 0.00531285489 0.0011645268 -0.00774224615
      0.029675398 0.116009653 0.0973514989 -0.00904059689 -0.0811904147
      -0.0799717531 -0.0728954375 -0.0273888949 -0.000622940483
      0.056378182 0.172797814 0.110562176 0.00401544804 -0.117421359
      -0.0545449108 -0.0073744664 0.000202638636 -0.000212729137
      0.00972416252 0.0488341488 0.104275949 0.0244805925 0.0113608986
      -0.0197951589 -0.059092503 0.00766931148 0.000616427278
      0.0247047842 0.0846509337 0.117863536 -0.00720875943 -0.0286092199
      -0.0490897112 -0.042040091 -0.0362815782 -0.0427240692
      0.0110186655 0.107405789 0.128758997 0.0291158538 -0.0211313851
      0.0861472413 0.0417232923 -0.00634974474 -0.149181977 -0.111265898
      -0.0645930022 -0.0590814911 -0.00236974587 -0.00478998385
      -0.0283491556 -0.0233194735 0.00805737358 0.00462400075
      0.0285430942 0.141760513 0.097109817 0.064807944 0.0371914469
      0.0860278904 0.0123517057 0.0056877872 -0.0110561941 0.00307042478
      0.0339358449 -0.00953580067 0.00207935576 0.0154282851
      0.0613030717 0.0650120899 -0.00748213055 -0.0811308473
      -0.0840210766 -0.0879790783 -0.107150301 -0.0934554413
      -0.0757448524 0.0312716812 -0.00136678235 -0.0797169954
      -0.0136208413 -0.00422374066 -0.0251969565 -0.0430722684
      -0.0711814836 0.0436394811 0.196745053 0.0891588926 -0.00773333758
      -0.0176090412 -0.0108536948 -0.04026144 -0.118052281 -0.0770702288
      -0.0748785958 0.0978969708 -0.037091855 -0.032679189
      -0.00567461876 -0.00142032583 -0.0172648616 -0.0521708503
      -0.161044359</_>
    <_>
      -0.118588328 -0.259123892 -0.162718341 0.0264145527 0.0911043361
      0.00699024042 -0.0947732925 -0.127976641 0.0771564543 0.133882508
      0.12299718 0.0293976106 0.108339779 0.0622224919 -0.0463146083
      -0.098355189 -0.233088106 -0.0124757867 0.0778289512 -0.0977777541
      -0.142031297 -0.112553693 0.0918940902 -0.0154248467 -0.0443203375
      0.0399312042 0.146554112 0.132173121 0.0883357301 -0.0886652246
      -0.0402015261 -0.0270460639 -0.152375892 -0.0768789649 -0.18211855
      0.114581749 0.0548558272 0.104734018 -0.0224070754 -0.0356646292
      -0.118451491 -0.0484901331 -0.0843109637 -0.26115641
      -0.00524110487 0.246368632 0.15973407 -0.0738329813 -0.206475124
      -0.0528600067 0.0165075846 0.0814566165 0.00880898442 0.18115136
      -0.0286335126 0.109611593 -0.136774093 -0.134610131 -0.253452927
      -0.133504257 0.00246413634 -0.2083821 -0.0589143075 -0.0443110652
      -0.209195897 -0.131515756 -0.184444711 -0.155569702 -0.0118197398
      0.217956737 0.214700371 0.132974699 0.12311051 0.101189129
      -0.128201053 -0.121004127 0.104352295 0.0577506758 -0.0290301032
      0.0442990437 0.205701873 0.0844345316 -0.019585358 0.0123476302
      -0.0460673496 0.0148215191 -0.0441638753 -0.0992933884
      0.0147934919 0.0140024405 0.146189541 -0.0821383521 -0.0436129943
      -0.103730105 0.131528243 0.0384249464 -0.00725434627 0.22783868
      0.396605074 0.0708091706 -0.165445194 0.0555022955 0.0696272701
      0.164966762 0.0460115299 -0.0867109448 0.113282122 -0.0569783524
      0.160952136 0.0397757515 -0.166556165 -0.159438476 0.0425884351
      -0.0994550511 -0.0819291696 0.0434399545 0.148388475
      -0.00391837489 -0.0742442384 -0.166521057 -0.167004779
      -0.0736069381 -0.208178192 -0.101742007 -0.0952007771
      -0.0366489366 0.0877632946 0.0884421691 0.0723595917 0.0177179053
      0.128013849 0.0230997764 -0.163886622 -0.217913359 -0.095378615
      -0.176255703 -0.059419129 -0.016091723 -0.0591192804 0.0365689844
      -0.128664732 -0.119240426 -0.147211418 -0.0671035424 -0.153267547
      -0.0901159942 -0.0977723375 -0.0143359257 0.0245568138
      -0.0484644137 0.138788551 0.123604663 0.0204231981 -0.198128328
      -0.314439714 -0.15890646 -0.105315499 0.0721911117 0.104920872
      0.197010994 0.310425431 0.303717911 -0.205298796 -0.135767594
      -0.112275362 -0.00133979309 0.0836687759 -0.0332476981
      0.0332232416 0.189097911 0.0129970862 -0.177105293 -0.381780654
      -0.24994199 -0.102278635 -0.0288334191 0.0120970951 0.087326698
      0.311973989 0.216987461 0.071882613 -0.277657449 -0.167476758
      -0.102990672 0.0401260816 -0.0495109111 0.0338644758 0.207483768
      0.281925917 0.215752289 -0.0111027602 0.0746306479 0.0653958023
      -0.0156757701 -0.122135296 -0.0961790606 0.0880622864 0.147084951
      -0.00186249323 -0.296659738 -0.311488092 -0.114697292 -0.217996314
      -0.148945227 -0.0155369816 0.0300854482 0.150127172 0.317353606
      -0.0307848416 -0.221377477 -0.202207252 -0.268942207 -0.366062164
      -0.0192236137 0.0789628923 0.2152358 0.168744579 0.0826440454
      0.0748438016 0.0252127834 0.0975343436 0.090164572 -0.188457161
      -0.413555652 0.00565118948 -0.0893368125 -0.0727106109
      -0.0576369725 -0.0228861123 0.0712686181 0.0474503487 0.109545916
      -0.0847129598 -0.128803909 0.138625935 0.021250153 0.0101195602
      -0.00683001149 0.0154187176 0.00695662573 -0.0978640094
      -0.17778945 0.0665074959 0.0825687349 0.0477034897 -0.0445396975
      -0.0021377271 0.0131143602 0.000641065824 -0.0248909872
      -0.132852912 -0.00310966512 -0.131714776 0.00513220439
      -0.0733427405 0.00343977963 0.0264661256 0.0108591719 0.045638334
      0.194141597 -0.0223371182 -0.0301251691 -0.246680781 -0.255913079
      -0.141321391 -0.178976879 -0.0744732469 0.118395939 0.450717241
      0.129874766 0.0693807676 0.107456975 -0.0460950769 0.00994865876
      0.00975795183 0.0123670632 0.00385127193 -0.0344567709
      0.0138916383 0.0425255969 -0.0180105045 -0.108281054 -0.0301486533
      -0.159746543 -0.164012656 0.0250474047 0.177596778 0.114860728
      0.127597407 -0.0533722974 -0.146490678 -0.192241609 -0.298761189
      -0.228503972 -0.123518281 0.107697204 0.306736082 0.237519696
      -0.0100321788 -0.127140924 -0.280996591 -0.409369677 -0.374767661
      0.0364122801 0.143858477 0.236559585 0.217611939 0.068751961
      -0.0491938852 -0.116614178 -0.21094586 -0.297658861 -0.243027106
      0.0182277039 0.157148778 -0.0085611986 -0.0102745863 -0.0302327983
      -0.198353484 -0.169797257 -0.227922305 -0.110660277 -0.148783728
      -0.0170269068</_>
    <_>
      -0.0960047096 -0.255726069 -0.138899997 0.0718240216 -0.029289009
      -0.108227938 -0.0899325758 -0.256979167 -0.095758304 0.27641046
      0.216104627 0.157509521 0.122954614 -0.0933026746 -0.242818251
      -0.203299031 -0.26149413 0.0446841307 0.242339164 0.0424584858
      -0.0285556335 -0.200929001 -0.215707213 -0.386235535 -0.328796834
      -0.21320352 0.209432259 0.168275997 0.0013693861 0.0588405803
      0.0151809463 -0.163060293 -0.445841849 -0.303488046 -0.329959303
      0.26239112 0.390848309 0.280421227 0.0482323915 -0.0309416801
      -0.14581646 -0.214209884 -0.166336536 -0.075113453 0.186943009
      0.235537976 0.0185710434 -0.0771215633 -0.169276536 -0.2118285
      -0.0012669377 -0.010564534 0.130446449 0.158254087 -0.0295976307
      -0.118184149 -0.0763348937 -0.0878464729 -0.18617478 -0.187215716
      -0.0525140092 -0.0935479403 -0.00208711484 0.161813512
      -0.00826388411 -0.043352589 -0.179981962 -0.170751765
      -0.0357223749 -0.0173397418 -0.176124856 0.0320665874 0.0349023901
      -0.0779529065 -0.0934902728 -0.16494444 -0.0695545971 0.0790771767
      0.0496086702 0.0463117808 0.0921579376 -0.121742457 -0.0847514719
      -0.227271989 -0.25538215 -0.0837222412 -0.012671655 -0.126350671
      -0.118132867 -0.128947303 0.256419837 0.104251169 0.0318403617
      -0.0696171001 0.020658277 -0.0823921859 -0.0284375586
      -0.0603574701 0.128208205 0.166267782 -0.0910260901 -0.14305909
      -0.23914884 -0.162625402 -0.243820265 -0.0296239257 -0.164419428
      0.0268718321 0.16879116 -0.00792094972 0.0958666354 -0.168003619
      -0.100950859 -0.274654359 -0.256793588 -0.154580817 0.142660305
      -0.0832131729 -0.229836538 -0.108180791 -0.135863915 -0.0274136402
      -0.184136376 -0.129340604 -0.0566144548 0.102351196 -0.0672649592
      -0.00126039039 0.0659721494 -0.0222330689 0.0398653373
      -0.0797666013 -0.0438518822 -0.00180474774 0.0857261121
      -0.119022727 -0.222600937 -0.199694812 -0.0188168176 0.0776557103
      -0.0645656437 -0.0570727214 0.0898496285 0.229022712 0.0163460933
      -0.245031565 -0.0590439253 -0.0118183699 0.140432596 0.0670909286
      0.112210125 0.0204730947 -0.0159756728 0.163438082 0.0148771824
      0.0839541778 -0.00800683908 0.0512674153 0.157464877 -0.0165355559
      -0.217548206 0.0787529573 0.0354911909 -0.184288993 -0.213031784
      -0.0328268632 0.0878008902 0.00166006829 -0.0505667962
      0.0374630988 0.053291373 0.0629734918 0.0081116613 0.0107643194
      -0.0334121138 -0.028977504 0.0338306352 -0.126461044 -0.265664279
      0.0872154087 0.189639509 0.0228949431 0.0986237302 0.0739434659
      -0.0792907849 -0.176941708 -0.00758802984 -0.216214716
      -0.0040264111 0.158095464 -0.0342860036 -0.0669208616 -0.22989887
      -0.0879607722 -0.261598378 0.0239090621 0.0675241873 0.133601263
      0.193699926 -0.12004789 -0.0284990128 0.00106861582 -0.0909313485
      -0.138148129 -0.093781054 -0.115508929 0.0986684412 -0.00245340657
      -0.224838525 -0.194521397 -0.25474146 -0.0628768206 -0.234711304
      0.0862695053 0.14993234 0.195588633 0.00148824067 0.0855656341
      -0.00778095005 0.0587072596 0.077022709 0.0220405683 0.0186866783
      -0.0975483507 0.109149262 -0.0222271532 -0.261820376 -0.221355364
      0.0542626642 0.0324691571 -0.0509751402 0.0232608281 0.143334031
      0.121544339 -0.0161747877 0.0501331165 0.0185705107 0.0156852417
      0.00835951511 -0.00965617038 -0.0524950325 -0.245859295
      -0.105363615 -0.0831937715 -0.171480045 -0.149324879 0.0154357878
      0.0117149614 -0.0402047895 -0.0804090723 -0.0171417873
      -0.0312024727 0.123615988 -0.153216049 -0.314953297 -0.0137809366
      -0.015991468 -0.0725431591 -0.121204272 0.0890981033 0.163542137
      0.109666876 0.0146566313 0.00537463231 0.00467564585 -0.0426384471
      -0.197953507 -0.228662744 -0.23523964 0.19178009 0.13311325
      -0.194619894 -0.195327058 -0.0165231712 -0.0557265058
      -0.0674117357 -0.178841859 -0.0318536796 0.195893899 0.055325713
      0.0159284174 -0.00079467945 0.00683252048 -0.0450473875
      -0.104980357 -0.205193952 -0.163939252 -0.065405935 0.195993274
      -0.077744849 -0.0505733378 -0.0418918431 -0.0298306737
      -0.106012315 -0.129355133 -0.0360301808 0.137605339 -0.080991663
      -0.341758579 -0.279489487 -0.2301642 0.0255142767 0.055752296
      0.160832688 0.246570051 0.199792758 -0.10846848 -0.0492737927
      -0.0111691263 0.0139844222 0.0785857737 0.0328433327 -0.0213795137
      -0.093467176 -0.23657918 -0.429420799 -0.430072814 -0.257426918
      -0.0517249927 0.26771313 0.298409909 0.21461314 0.141122639
      -0.0923465565</_>
    <_>
      -0.0782344863 -0.0797516331 -0.093429625 -0.0561936498
      -0.0120515199 0.00409813365 0.00270639569 0.04254172 0.0741855726
      -0.0346977562 -0.0766633898 -0.0892878994 0.0463553034
      0.0196899567 0.00717380038 -0.0170106832 -0.0624852441
      -0.127303496 -0.0622848533 -0.206847861 -0.0308460277 0.0536743551
      0.000398827484 0.0128136761 0.0202217493 0.0776560083 0.232452109
      -0.0625155345 0.0673190057 -0.133318484 -0.0790310502 -0.051035393
      -0.0318473093 -0.100210629 -0.325109094 0.079426907 0.0133082755
      0.0567035936 -0.112599343 0.0572927706 0.0205907095 0.0446991362
      -0.104216479 -0.0728501007 0.0885420889 0.15183349 -0.156352133
      -0.153846547 -0.0452981479 0.0741663352 0.0552350804 -0.182615191
      -0.0130230244 0.0426217131 0.0860913694 0.170762599 -0.10282822
      0.0277302451 0.0199842975 -0.0364260301 -0.286427915 -0.175440043
      0.0741730034 0.0421334766 -0.0141036967 0.0501070097 0.173179358
      0.148326293 -0.0289233178 -0.210764855 -0.0866868272 0.0554984808
      0.0613972358 -0.0280117653 -0.0210467707 -0.00184900349
      0.039239727 -0.111924335 -0.213989243 0.0322419368 0.0349607095
      -0.0141304843 -0.101508372 -0.0374310277 -0.0890903994
      -0.319871426 -0.366216928 0.00250844564 0.160634875 0.246637404
      0.0931078792 0.141931266 0.278405339 0.28945452 -0.0268953405
      -0.124520101 -0.0812887251 0.191302717 -0.0414972901 -0.0236385651
      -0.224675298 0.193752214 0.0462624021 -0.202408344 -0.282336414
      0.0811061561 0.323339939 0.200160235 0.0180265736 -0.250711858
      -0.120676659 0.12048655 0.138617203 0.016853964 0.100902647
      0.123471886 0.163002267 -0.034240108 -0.15376538 -0.216163442
      -0.106985152 0.0138451206 -0.0500881374 -0.0433575921 -0.153376237
      -0.0417135842 -0.20828484 -0.258599043 -0.149946287 -0.0897425488
      0.232783794 0.0320852101 0.207627118 0.169891432 -0.0496983379
      0.0729455724 -0.113926016 -0.0363143012 -0.136641532 0.0922853798
      -0.101569094 -0.033483889 0.0364935286 0.233012423 0.0521600358
      -0.0271571148 -0.0800544769 -0.104013585 0.0715336129 -0.022456225
      -0.185437113 -0.178088784 -0.143715873 0.0331864469 0.0211692303
      -0.0138278445 0.082795471 0.0645792708 0.0368659087 -0.143623352
      -0.0261953939 -0.000636568642 -0.0207532924 -0.131745517
      -0.260736108 -0.151949897 0.06592381 -0.0233833846 -0.0650135726
      0.0405169241 0.120175183 0.0663519651 -0.119096555 -0.275956601
      -0.170961082 -0.129053161 -0.0727804527 -0.0671639815 0.0769698098
      0.211124763 0.268565148 0.0657958537 0.151425764 0.118846811
      -0.303981483 -0.276743203 -0.0993750095 0.113261446 0.127827585
      -0.125343159 0.017609274 0.261020571 0.150075153 -0.0944810063
      -0.184714317 0.049047865 0.0580705814 0.0364101045 0.0649428889
      -0.220860153 -0.277028531 -0.113439471 -0.240232319 -0.173302203
      -0.0949407592 0.154455498 0.507741868 -0.0366433635 -0.311089545
      -0.0266796332 0.0338483937 0.0401974656 -0.105618507 -0.064696148
      -0.0736935362 0.162286803 -0.203043476 -0.0565501824 -0.0901451409
      -0.197071224 0.0110390494 -0.0584280081 0.0716934651 0.196104497
      -0.0267745852 -0.0266439803 -0.0581972301 -0.116970912
      -0.133384615 -0.0717360824 -0.186875835 -0.17829968 -0.109045066
      0.0194732659 0.130539224 0.191544265 0.0774453729 -0.0420917124
      -0.0941162035 -0.0680323467 -0.0260916818 -0.0423031487 0.10576684
      0.139539137 0.125007853 0.0876675248 -0.0790620595 -0.120019272
      -0.137871459 -0.247263834 -0.246633962 -0.0412858538 0.112881087
      -0.0658574849 -0.23723793 -0.117954686 -0.0902412012 -0.172755972
      -0.269199818 -0.0466134697 0.221752942 0.194617242 -0.168653041
      -0.277697593 -0.120522529 -0.177287087 -0.263767242 -0.155081496
      -0.0108403079 0.281504035 0.122356385 0.0226024203 -0.0894947872
      -0.0660222471 -0.13146247 -0.231992751 -0.333707064 -0.193485186
      0.236773208 0.105042838 -0.169200033 -0.278371245 -0.0803168267
      -0.0731124058 -0.284611583 -0.260308981 -0.0722526312 0.136314824
      0.0274597555 -0.382092416 -0.427816153 -0.253793001 -0.204093844
      -0.131337285 -0.0206440575 0.312738359 0.420113027 -0.0412584282
      -0.452021778 -0.317392856 -0.266454011 -0.180287048 0.0491193496
      0.178359449 0.227225289 0.346775055 -0.11276859 -0.309156239
      -0.355862796 -0.227299631 -0.0917337313 -0.0257632472
      0.00483523635 0.0735847205 0.0656084493 0.12251088 -0.0721178651
      -0.117164046 -0.194867671 -0.0271758717 0.192435503 0.218613178
      0.149263248 0.175591245</_>
    <_>
      -0.259132981 -0.128556341 -0.00529344333 0.0601408817 0.0382966883
      0.00121509528 -0.00155841676 0.00280739204 -0.101924092
      -0.0150823612 0.0779202282 0.0775254592 0.0843227506 -0.050027702
      -0.0191890616 -0.0291089099 -0.101790339 -0.160633177
      -0.0224625859 -0.0966503248 0.0609099828 0.0313383974
      -0.0345279202 -0.0325390808 -0.0375498123 0.033932481 0.0135073885
      0.0469183698 0.0895328522 -0.00618753629 0.0188507605
      -0.0512507744 -0.043201454 -0.0819133818 -0.0884415209
      -0.0340335481 0.0699391738 0.18219918 0.0303217042 -0.000933387491
      -0.107837975 -0.0559023395 -0.0350034088 -0.12053261 -0.0853551775
      0.10409046 0.0770139024 -0.0388297066 -0.058483623 -0.095707126
      -0.0854615942 -0.0585509501 -0.11032185 0.00919490214 0.191952169
      0.259194344 0.0397656113 -0.0401091725 -0.0898259208 -0.080639571
      -0.043934945 -0.039537251 0.0531401634 0.108033709 -0.0431476012
      -0.00369690685 0.00674336683 -0.0934729427 -0.10020756
      -0.0690212622 -0.00671934709 0.106689721 0.0127447993 -0.162891433
      -0.097857438 -0.0513323098 0.0385914743 -0.00324873906
      -0.0524816327 0.0233487505 0.044364877 -0.287927836 -0.307369024
      -0.122531675 -0.048892919 -0.0317511931 -0.0109084733 0.0788131133
      0.0767449811 -0.0789475739 0.155149221 -0.125735208 -0.0847993195
      0.082313545 0.160693467 -0.023510186 -0.0231955759 0.0371442549
      0.218555808 -0.0656595528 -0.233091414 -0.178678289 -0.0361345895
      0.012625156 -0.00429159682 0.042658601 0.0867001563 0.129715934
      0.0204026327 0.0395909883 -0.0291198175 -0.0230284259 -0.111002654
      -0.0976823345 -0.0526709259 0.0581526868 0.0809504986 0.116768979
      0.0203452576 -0.0243965704 -0.0923119113 -0.0305985119
      -0.111424357 -0.20675014 -0.0793329924 0.0333379097 0.0465302095
      -0.0435503758 -0.103924096 -0.22765547 -0.205074698 -0.0673900545
      0.0225488357 0.0708462074 0.193285137 0.0619904436 -0.00953007955
      -0.0198174883 -0.154360443 -0.163492143 -0.213070199 -0.149796739
      -0.0323861539 0.210390314 0.207286298 0.0955989063 0.0336631648
      -0.05093465 -0.0488135628 -0.0823496804 -0.139738768 -0.0384279639
      0.0663210452 0.182139352 -0.0114956349 0.0286617186 -0.0327499993
      -0.0941059291 -0.00113217731 -0.0883697644 0.0140926111
      0.185256198 0.157273516 0.129864484 0.0323147513 -0.0330831222
      -0.0819559395 -0.168116882 -0.134211406 -0.0499951579 0.0869654864
      0.0504302569 0.0188490488 0.00333205867 -0.0303733312 -0.104395017
      -0.109510794 -0.154648557 -0.0759763494 -0.00101760984 0.179391339
      -0.116564505 -0.0809091851 0.00258479966 -0.042939581
      -0.0657050386 -0.0217649676 0.0203527361 0.163591057 0.00401136884
      -0.149796426 -0.0293672606 -0.00612908835 0.0446141809
      0.0445384122 0.111970611 -0.00085210253 0.114154153 0.00481206458
      -0.0807725713 -0.0953787491 -0.0202559847 -0.0539397709
      -0.0307338536 0.011778702 0.0127550615 0.163101718 -0.0100207347
      -0.133854717 -0.0322918892 -0.0639209151 0.0266524684
      0.00489423005 0.145559236 0.0915692076 0.221638799 -0.0158692226
      -0.278960943 -0.293485522 -0.380088925 -0.253428847 -0.1018655
      0.0681158602 0.175173685 0.358092725 0.20268634 -0.0453648344
      -0.115918785 -0.21817261 -0.201383635 -0.19487983 0.0739706904
      0.114266753 0.259928823 -0.058199808 -0.255148709 -0.272800773
      -0.190927386 -0.0884635523 -0.0268092863 -0.0331333429
      -0.0458229557 0.153743476 0.198018372 -0.0513620377 -0.112785131
      -0.168036789 -0.169510692 -0.0541802011 -0.102822028 -0.030912295
      0.170460552 0.0981017649 0.127581954 0.0663417876 -0.0707323179
      -0.229457065 -0.176927865 -0.210495919 -0.0512654521 0.0170122832
      -0.0653605759 0.0435272306 0.03255862 0.00205713767 -0.0764415488
      -0.157149151 -0.118896596 -0.0724038929 -0.0484435894 0.223525226
      0.134479955 0.0282033421 -0.0665254891 -0.158040121 -0.0380203389
      -0.13583672 -0.0904728919 0.182519644 -0.0141134262 0.0303833801
      0.015142492 0.011690476 0.0138011342 -0.00778625021 -0.00526943011
      0.0501712821 0.0843648985 -0.155872121 -0.215920135 -0.0813213512
      -0.0173093304 -0.0223401859 0.0090780789 0.063296929 0.0574995503
      0.0210959967 -0.184941292 -0.319756925 -0.258041352 -0.109064959
      -0.0274553299 0.120394602 0.2087484 0.144739866 0.12027064
      -0.105648592 -0.120893165 -0.0212533269 0.00726749049 0.0516437665
      0.142070875 0.197438002 0.145937145 0.0331010781 -0.0514568947
      -0.212647349 -0.15953663 -0.0336341187 0.114321314 0.224577218
      0.231870428 0.152457669 0.120649293</_>
    <_>
      -0.0194502287 -0.0317012705 -0.0141012054 -0.000971066765
      -0.0171210449 0.000151985456 -0.00403470872 0.0105489874
      0.0457805023 -0.0852337256 -0.0411988832 -0.0103938458
      -0.00301571493 -0.00908890832 0.00228261016 0.00894402899
      0.021225499 0.0162203442 -0.0421655253 -0.193962738 -0.0704940632
      0.0402344465 0.0368521214 -0.000351797673 0.00570990471
      0.0257994104 0.211811215 -0.0199543871 -0.19685027 -0.0175967682
      0.00513399905 0.0287737418 -0.00177945837 -0.00570428371
      -0.00176010001 0.125237912 -0.114604101 0.0419496596 0.0244642589
      0.00114937243 0.00631019613 0.0127010578 0.0422720052 0.122498877
      -0.0163285788 -0.115147322 -0.00424837694 0.0250138976
      0.00981411431 0.021055894 0.0246512797 0.0454004407 0.066969648
      -0.107354365 -0.0683735982 -0.0901347324 0.127914071 0.016924357
      0.0618818887 0.0207336936 0.0520862862 0.121350288 -0.0128089627
      -0.0981587395 -0.118686475 0.0755310953 0.0840016007 0.174978986
      0.107070684 0.134082675 0.0859735385 -0.0420212448 0.0136583541
      0.0379541703 0.0308714937 0.0224599577 0.0255470183 0.0202699583
      -0.0327783115 -0.0273582451 -0.0954294801 0.0479471497
      0.0367018208 0.017358331 0.012331265 0.00478695985 0.00240232423
      -0.0787343606 -0.0708666146 -0.0449235365 0.011718926
      -0.0279424004 0.06855537 0.116691887 0.172721684 0.0873857513
      0.0567275845 -0.0617261231 -0.0629077181 0.0474769846 0.0418082327
      0.0827768296 0.0713658854 0.0962602198 0.068973355 -0.119759239
      -0.0837636888 -0.0432425924 -0.0210471656 -0.16517897
      -0.0668210238 0.0322541632 0.108711839 0.000791508239 0.0205014683
      0.0439166427 0.130243242 0.0137555366 -0.136879817 -0.0348215848
      -0.0144874845 0.087987192 -0.0332740732 -0.0625190735
      -0.0160245579 0.154406324 -0.0887641609 -0.13558048 -0.0523444228
      -0.00932362862 0.112754487 -0.0177596416 0.0556981415 0.118005984
      0.0338243432 0.103574008 -0.0236419421 -0.0842769295 -0.0715252087
      -0.028015893 -0.138603419 -0.108716764 0.0108998967 0.214101925
      0.024221072 -0.0600014701 0.0649044588 -0.015644541 0.0619917549
      -0.0378985479 -0.042803511 0.0411354452 0.117578253 -0.105212122
      -0.0539360754 0.0266733896 0.00423055515 0.105885349 -0.0419823751
      -0.0490554273 -0.0355105661 0.0182019118 0.11986313 0.0447677895
      -0.0147800744 -0.0815419778 -0.0955885276 -0.207607597
      -0.177559331 -0.0180255212 0.241873279 0.0104848621 0.0324514657
      -0.0163492486 -0.120391957 -0.208487034 -0.282867819 -0.244695485
      -0.0581388846 0.181835994 0.0313195139 -0.0794357583 0.00633392762
      0.0584082343 0.083246842 -0.0571410023 0.00153301377 -0.116555743
      0.0242567267 0.0362072848 -0.0678652525 -0.0239036307 0.0337241553
      0.0731928572 0.0334240012 -0.0133154197 -0.0991080105 0.0100747803
      0.0738961324 -0.0560363941 -0.0843951926 -0.111053623 -0.113545954
      -0.163422137 -0.113522843 -0.00751326932 0.188425958 0.0343910716
      -0.215674564 -0.192273915 -0.122946426 -0.0201010983 -0.0738187656
      -0.00594654959 0.00805174746 0.212458119 -0.0143994158
      -0.153956577 -0.132829607 -0.0933213234 -0.0559644215 -0.068246223
      0.0179818254 0.222427368 0.0197898783 0.161564961 -0.0333021879
      -0.156827986 -0.146517232 -0.21930407 -0.228375599 -0.17499724
      -0.0368493237 0.191760331 0.0785348415 0.140996218 0.0496185906
      -0.00437623914 -0.0592422187 -0.00988476537 -0.0279446505
      0.0532755852 0.0850891471 0.25519824 0.186179876 0.100289911
      -0.00352636632 -0.111357316 -0.105300806 -0.128575131
      -0.0913016051 0.128676444 0.277319998 0.166375011 0.0181254316
      -0.051220119 -0.227317095 -0.249564365 -0.244404122 -0.0643702671
      0.264280468 0.165123329 0.111900412 0.0297653582 -0.115053847
      -0.281093955 -0.294004232 -0.250592858 -0.137576446 0.191389337
      0.241650745 0.22497569 0.0747093186 0.0129725905 -0.108033195
      -0.06833639 -0.163847163 -0.119697683 0.0615622513 -0.00901389308
      0.0654839501 0.0188296605 0.0121227456 -0.136356667 -0.103569575
      -0.155621067 -0.255172431 -0.0871053636 0.0836170092
      -0.00404721033 -0.0301082581 -0.0597444698 -0.092531763
      -0.125256673 -0.0542298518 0.0152403004 0.162638023 -0.0467627682
      -0.161147773 -0.175777942 -0.0931895822 0.00506838318 0.0768447295
      0.0669445992 0.00207445957 0.0927392915 -0.0978710279
      -0.0433981828 0.00372526632 0.0140115218 0.075260967 0.0662162378
      -0.0258771405 -0.0986081585 -0.108435713 -0.183684677
      -0.0918652043 -0.0325822979 -0.01558482 0.116728038 0.157634437
      0.0909830034 -0.00174092001 -0.0782503113</_>
    <_>
      -0.27535674 -0.201564208 -0.0831507295 0.046215605 0.0307460595
      -0.0502569452 -0.0361128487 0.0057014199 -0.00164416805
      -0.0130725726 0.171231762 0.100535706 0.0413179882 -0.0387779959
      -0.0775648952 -0.0550974682 -0.0772182345 -0.121928282
      -0.000416042079 -0.0948173925 -0.0275003314 -0.122154728
      -0.134254634 -0.159341872 -0.12424846 0.00196295418 0.171779513
      0.104437374 0.0439306386 -0.13487798 -0.0561951101 -0.0774067342
      -0.179319784 -0.15367721 -0.107360438 0.0717663094 0.00409378903
      0.228411034 0.0218855198 -0.0967836604 -0.0302905254
      -0.00229733088 -0.0527087897 -0.0995292515 -0.11545895 0.109773152
      0.138615727 -0.0703883246 -0.138616726 -0.0643851385 -0.0472021773
      -0.11548616 -0.0647621453 -0.0241782963 0.0754599497 0.0676730871
      -0.148995787 -0.139164507 -0.133726344 -0.00973388553 0.0016468541
      -0.097084336 0.0537421331 0.0560518764 -0.0272440668 -0.148002371
      -0.205211192 -0.113741055 -0.0148209995 -0.0385231674
      -0.0204001386 0.106967188 -0.00194187963 -0.00153876096
      -0.03252865 -0.073404856 0.0327203088 -0.0285739079 -0.108174793
      0.00986437127 0.104047239 -0.0550838374 -0.0457914434
      -0.0702470988 -0.0612917095 -0.0614483692 -0.114610031
      -0.0462599769 0.0862496346 0.0643777549 -0.0271683317
      -0.0643845722 -0.132504031 0.0244080145 0.0681834817
      -0.00458462862 -0.0966599062 0.00241408497 0.184135407
      -0.0953065306 -0.364367306 -0.206049547 0.0327022634 0.0423132218
      -0.0743890405 0.0430941433 0.106168456 -0.0585684255 0.168294042
      0.147128642 -0.00524216145 -0.163121134 -0.0896293446 -0.133851036
      -0.104930699 -0.00795559119 0.145274863 -0.000473350461
      -0.122837275 -0.178567782 -0.151932985 -0.0410099402 -0.100937642
      -0.0591250695 0.000314752455 0.0769902915 0.0594667085 0.17518273
      0.16237925 -0.130145714 0.0656080097 -0.040207915 -0.0259353667
      -0.225705996 -0.12690635 -0.0376912989 -0.15297918 -0.0838510841
      -0.159932271 0.011824728 -0.0582638606 -0.0229448415 -0.111852854
      0.0364005938 -0.0413504578 -0.234285951 -0.146516532 -0.0245331712
      -0.0119753499 0.0455020256 0.0905383155 0.061161451 0.151770592
      0.0356542654 -0.176405489 -0.159829795 -0.127297893 -0.0683777854
      0.0799998567 0.066585511 0.0306051355 0.318961412 0.0653409585
      -0.223772109 -0.116484754 -0.0643116459 0.015291403 0.033661589
      0.100032337 0.103981338 0.155015245 0.068057932 -0.131254375
      -0.125542477 -0.0847857594 -0.0891404599 0.0309134591
      -0.0114791375 -0.0456146151 0.289587051 0.0848256871 -0.203804642
      -0.119976483 -0.0354779363 -0.0501111075 -0.00187980477
      0.0216588974 0.0327669196 0.242947444 -0.0693141297 -0.34901768
      -0.0560677685 0.0640638694 0.0994845256 0.0186608639 0.105082877
      0.0655145422 -0.0470669977 0.138057828 -0.122900583 -0.228596106
      -0.134772375 -0.162176177 -0.0522626378 0.000954540563
      0.0653963462 0.393987477 -0.0105219753 -0.170514017 -0.0966636389
      -0.0551426075 -0.00711523788 -0.0585272759 0.0671334639
      0.064262867 0.175386652 0.0597713441 0.109306835 0.105038047
      0.0130126672 0.0609807782 0.0202170089 0.111085095 -0.0783828646
      -0.0158679094 0.0338810422 -0.13129288 -0.049840983 -0.0877598077
      -0.0599472001 -0.0754899681 0.0172907263 0.0179740265 0.0322517119
      -0.0453719646 -0.0432184711 -0.0484124683 -0.00361864595
      -0.0347942747 -0.0295443125 0.02484883 0.0529276393 -0.0253455695
      -0.0414180681 -0.112202138 -0.0601780564 -0.045117408
      -0.0466427132 -0.0846576095 -0.0790945813 -0.0193994194
      0.0791158006 0.0472393222 -0.144233674 -0.0591317676 -0.134674683
      -0.0724054202 -0.0474159084 -0.0325914137 0.0526742339 0.115001805
      0.138768703 -0.0719160661 -0.0849429145 -0.115332939 -0.0865161195
      -0.0550953336 -0.0362919979 -0.0319491774 0.178024858
      -0.0244524404 -0.0418906324 -0.0781180859 -0.0973417386
      -0.0869299024 -0.0592066832 -0.109598525 -0.0665328503
      0.0736313611 0.0449335612 -0.100315556 -0.0941817239 -0.0857489258
      -0.0608074963 -0.051655326 -0.050331004 -0.0454797894 0.078340508
      0.0478549972 -0.215305954 -0.380232245 -0.274785519 -0.209687069
      -0.0917328745 0.00509287417 0.106099196 0.250955105 0.00383227202
      -0.121259145 -0.271242678 -0.202936485 -0.103659026 -0.0388738401
      0.126012772 0.204666764 0.274874777 -0.0271808468 -0.251554906
      -0.262896746 -0.155388147 -0.0483265147 0.00545323407 0.0256743897
      0.0390079618 0.145321757 0.124229483 -0.141363427 -0.20828329
      -0.127596706 0.0386405438 0.0938429907 0.13468051 0.145027578
      0.353036553</_>
    <_>
      -0.115625784 -0.242959425 -0.142717168 0.0313117243 0.0429595038
      0.0362491645 0.056326732 -0.0153751932 -0.00959456991 0.242760658
      0.271301419 0.0802913308 0.0599866211 0.0682876408 0.0441692546
      -0.115703754 -0.437432855 -0.25196901 0.200687736 -0.458686084
      -0.309689164 -0.0551169664 0.00984256994 -0.079368934
      -0.0454677455 -0.0574448593 0.232409298 0.138308734 0.12606521
      -0.0301842 -0.0209287759 0.138900653 -0.054098703 -0.240238518
      -0.781782568 0.00274757645 0.316299736 0.263026237 0.019559741
      -0.013711133 0.144644707 0.155753449 -0.0620582551 -0.270373583
      -0.0365742408 -0.0126939639 -0.0412807129 -0.149683833
      -0.026572207 0.196561724 0.0861079618 -0.138053507 0.0572501868
      -0.0749286115 -0.133728638 0.0917493403 -0.0161406994
      -0.0959444866 0.250326902 0.00317851361 -0.204597309 -0.494312465
      -0.0456331782 0.281659037 -0.269786358 -0.374471426 -0.0931536555
      0.256991267 0.0366037041 0.0882263035 0.154213667 -0.0291084442
      -0.220462978 -0.0732105151 -0.0240538884 0.0326381549 0.110990018
      -0.100344934 -0.248773575 0.00971792825 0.0632425323 -0.141643032
      0.040189188 0.0358122252 0.0160800982 0.035876587 -0.0861130655
      -0.0149717648 -0.123135932 -0.0989258289 -0.103729382 -0.276634961
      -0.211262092 0.0855714306 0.28730464 -0.127469525 0.0638157427
      -0.12740992 0.0351844952 -0.291863203 -0.314107865 0.00856193062
      0.0381719731 0.159686878 -0.0738116577 -0.125391766 -0.17051661
      -0.123957135 0.241726562 -0.177852049 -0.142053291 -0.16837652
      -0.0699928403 -0.287132531 -0.109475382 -0.00714360317 0.308597237
      0.0110022929 -0.00951610692 -0.162066862 -0.28234908 -0.097659342
      -0.376957178 -0.226353034 -0.595194101 0.0515853465 -0.071937941
      0.0326748826 0.105379276 -0.144505739 0.143158853 -0.239392057
      -0.0680890158 -0.292704314 -0.243505225 -0.0373114981 -0.186835006
      -0.189090043 -0.337336212 -0.176242441 -0.562224507 -0.240492687
      -0.265933812 0.243278682 0.00896295533 -0.2245107 -0.118044659
      -0.348212153 0.0566180535 -0.159025848 0.0271000862 -0.157922581
      0.0568535477 0.23135595 -0.263091862 -0.121704057 -0.350202441
      -0.142724901 -0.156239808 -0.130517453 -0.1152495 0.250542462
      0.0778388754 -0.265898824 -0.462740749 -0.390740216 -0.13850373
      -0.222330168 0.0334978364 0.17231831 0.375656307 0.0831275433
      -0.218027741 -0.186078593 -0.402588427 -0.304160208 -0.106399134
      -0.0404730886 -0.0234944336 0.175840497 0.0856931135 -0.463384807
      -0.295603633 -0.157273263 -0.00785958581 -0.218652979 0.0529158413
      -0.189959794 -0.0162375588 -0.215613142 -0.306709439 -0.068800427
      -0.206894919 0.0184843428 -0.0942038 0.364128202 -0.105994076
      -0.0895362049 0.164095894 -0.0410536677 -0.315324485 -0.23540464
      -0.263237298 -0.217179522 -0.162581772 -0.190762654 0.223176137
      -0.10210897 -0.303942919 -0.254710883 -0.317801744 -0.160038054
      -0.225159764 0.151986152 -0.0766865462 0.213331446 -0.0349502638
      0.324789435 0.11889112 -0.191515446 0.0523966886 -6.76768177e-05
      0.0428964682 -0.292799383 -0.246320367 0.12541391 -0.421684146
      -0.191300914 -0.300079435 0.0356416516 -0.11261031 0.0977825671
      0.0220575072 -0.248022348 0.117325291 0.450601071 -0.103856407
      -0.206300214 -0.177594662 -0.0661767423 0.0191440601 -0.418104738
      -0.286832601 0.00354369823 -0.104062572 -0.238414764 -0.226274505
      -0.000581314962 -0.00502911443 0.018515883 0.0179872196
      -0.152799398 0.129409015 -0.314022869 -0.732012868 -0.260685802
      -0.0647108853 -0.0884688869 -0.0340912454 0.112087905 0.401073694
      0.299956113 -0.167096317 -0.274564534 -0.122590855 -0.118953168
      -0.360489905 -0.365824848 -0.17418015 0.00337786064 0.275933683
      -0.258887857 -0.62499541 -0.155741677 -0.0540112332 0.000229393947
      -0.042325668 -0.00178531057 0.359511197 0.396017879 0.170911402
      -0.144631982 -0.0533972196 -0.0148660187 -0.305502176 -0.396008134
      -0.149297804 0.207844421 0.19169116 0.393304467 -0.108411044
      -0.0815557465 -0.066197224 -0.208053067 -0.282221079 -0.302789003
      0.213088363 -0.217711896 -0.325246334 -0.178250194 -0.255990624
      -0.0413426124 0.0363772251 0.121054374 0.0175436288 0.0770909339
      0.166982085 0.143619075 -0.061414931 0.0288461447 0.115344867
      -0.0680203736 -0.162641317 -0.180331439 -0.295509905 -0.595880032
      -0.311630964 -0.217198327 -0.15677774 0.221073315 0.245154947
      0.308888227 0.130569085 -0.39229542</_>
    <_>
      -0.185301527 -0.258270442 -0.253227174 -0.0615171753 0.0360742882
      0.00119490479 -0.00259448751 -0.0123692593 0.0133380266
      -0.0802982077 0.0967725217 0.102255911 0.0453097932 0.0327688046
      -0.017767461 -0.088719897 -0.249993429 -0.223234192 0.0879928842
      -0.228551552 -0.0499117821 -0.186909199 0.0131880995 -0.0494154617
      -0.0870143175 -0.018958604 0.192121014 0.0880396217 0.0446195453
      0.0551841259 -0.0344736949 0.107878663 -0.171578586 -0.297054857
      -0.343443155 -0.0198889002 0.110466935 0.333799928 0.146613404
      0.0247767996 0.0458549745 0.0272301566 -0.116504095 -0.402636707
      -0.2351491 0.18092452 0.18961066 0.0289841518 -0.00625355588
      0.0747018009 0.0418481901 -0.197078854 -0.210142508 -0.0301450789
      0.166803628 0.245202869 0.152012214 0.00916419365 -0.0388598777
      -0.26514554 -0.248400196 -0.296384692 -0.0731766671 0.340072721
      0.124395549 -0.00214931136 -0.158952951 -0.16328232 -0.232715294
      -0.238524109 -0.0909333378 0.130276218 0.0346016884 0.0311121996
      -0.0645520836 -0.0339260772 -0.11116299 -0.0395784378 -0.157469422
      -0.242906988 -0.129276082 -0.0372858383 -0.0391339734 -0.124400623
      -0.063099049 -0.124645874 -0.00960705709 0.0544122048 0.0173675343
      0.00530430255 0.293126106 0.206907719 0.00972634181 -0.208989471
      -0.127971113 -0.234730527 -0.240027994 -0.114959173 0.189378858
      0.0283213835 -0.0584088713 -0.0886503756 -0.15662542 -0.310409427
      -0.103365391 0.0866717845 0.170573607 0.19686377 0.139899179
      -0.0101949889 0.0372390077 -0.219160795 -0.0897698626 -0.158359244
      -0.153004587 -0.062433131 0.0962303355 0.0834145993 -0.151351362
      0.00519735366 -0.115236156 -0.00325907767 -0.30842036 -0.332971007
      -0.224037528 0.093122676 -0.149604827 0.018765429 0.180188343
      -0.215235651 -0.0518707149 -0.186724454 -0.113170743 -0.0659734458
      -0.115826093 -0.0727918893 -0.297481716 0.0825588182 -0.135096207
      -0.0796490684 -0.228669256 -0.0926066563 -0.0367909484 0.110040754
      0.206193253 -0.0524636097 0.125209287 -0.107863165 0.00202609645
      -0.297832817 -0.164461106 0.0408597216 0.230912223 0.410927862
      -0.0133584002 -0.122198835 -0.185783967 -0.124980219 -0.134166554
      -0.0340659469 0.155880451 0.465942502 0.135561123 -0.224821255
      -0.187540963 -0.212122619 -0.127453506 -0.264753312 -0.179239467
      0.0141481375 0.346366137 0.125411257 -0.0806571618 -0.270507902
      -0.27501443 -0.240388274 -0.154649556 -0.22770378 -0.0516626388
      0.194325238 0.182503551 -0.0884672329 -0.0498157293 -0.180238605
      -0.414174467 -0.204553589 0.0203635301 0.033680018 0.2970438
      0.0706818923 -0.143139675 0.0538888611 -0.0877205208 -0.12380375
      -0.0902295262 0.0557503588 0.153603747 0.235353574 0.101194039
      -0.157961369 -0.158568427 -0.073898457 -0.16398342 -0.0776435435
      -0.119231924 0.00307584414 0.175689623 0.0691898912 -0.116014153
      -0.100051373 -0.124341473 -0.0847031623 -0.083293803 0.0188288726
      0.167550772 0.281667978 0.0654161572 -0.0940481648 0.0910876542
      -0.046973452 0.0252946746 -0.122521527 -0.0958276764 0.0694715381
      0.166161031 0.00366942794 -0.306700647 -0.0846855193 -0.137119919
      -0.0339353345 -0.0293265134 0.117612712 0.123503961 0.149618104
      0.0185381435 -0.137511179 -0.140482888 -0.0602322109
      -0.00913254544 -0.0475856625 -0.0791850612 -0.0961955413
      -0.130943626 -0.104325719 -0.169204265 -0.182026342 -0.0849191248
      -0.00130579108 -0.000884382986 0.0275424924 -0.0293106288
      -0.0256573651 -0.0335218832 -0.189628586 -0.140605062 -0.193987042
      -0.143919975 -0.15391022 -0.0886393264 0.0571525656 0.189641789
      -0.0836008936 -0.127252951 -0.0333790965 -0.0961000025
      -0.108034424 -0.159674048 -0.155433774 -0.0626322702 0.120132871
      -0.0733335614 -0.26345703 -0.0848119482 -0.0821621343 -0.037693698
      0.0010194272 0.0160103831 0.0326767676 0.167433888 -0.206799895
      -0.181248546 0.00117198576 -0.0113563836 -0.0116357096
      -0.012266526 0.0161513127 0.0627909005 0.0598117933 -0.0558477491
      -0.141401038 -0.073328644 -0.056348417 -0.0496307276 -0.0466946624
      -0.013092217 0.137755707 0.0311478358 -0.0838596597 -0.22790955
      -0.251041889 -0.179947734 -0.0689608157 0.0281007849 0.136269882
      0.169046313 0.239847943 -0.221792981 -0.018580148 0.0116101783
      0.00813381746 0.042120181 0.00915576331 0.0453636684 0.116297349
      -0.141627342 -0.24003832 -0.22689718 -0.0803795755 0.00656719925
      0.160261557 0.147144914 0.157681197 0.168523669 0.0272221155</_>
    <_>
      -0.0765028074 0.0782402828 0.0347530283 -0.0143374456
      0.00956022087 -0.0132632339 -0.00551662454 -0.00768307922
      -0.0997688845 0.024195794 0.0180191696 0.0307223815 0.0329962522
      0.0160611551 0.00108657975 -0.00619695289 0.0352793373
      0.0404886529 -0.0185719226 0.170798317 0.0874245986 -0.191965759
      -0.0840925723 -0.105020732 -0.0795862377 -0.059457738
      -0.0486001447 0.03077765 0.0373571403 -0.0122715579 -0.133379743
      -0.0205136929 -0.00267566508 0.0446288511 0.0754058287
      0.0575971566 0.0349696837 -0.0293683764 -0.0440582931 0.0351298116
      0.0228728112 0.0382933617 0.0121997986 0.0736927763 0.0654662922
      0.0387641713 0.0508369803 0.243133634 0.251277179 -0.0210748073
      0.0367919318 -0.016775474 -0.0226280652 -0.0254204702 0.0190350693
      -0.171654686 -0.0976754427 -0.0360106491 0.01429349 0.0899586827
      0.0731842443 0.0262231193 -0.0112771373 -0.0709372759 0.115564018
      0.131968737 0.188267604 -0.104311056 -0.0757010877 -0.255742908
      -0.342859447 -0.244366735 0.0475663505 0.101354584 0.256873757
      0.14620772 -0.0508449785 0.0226199571 0.00103348843 -0.0337723531
      -0.00116496277 -0.0833509266 -0.0231976435 0.034845788
      -0.0167796463 0.068409279 0.0406018347 0.00801639073 -0.0119384993
      0.0665305555 0.0479901768 0.152111173 0.166946292 0.00560105266
      -0.29336229 -0.288820237 -0.302265614 -0.25834617 -0.0766532421
      -0.0852630213 -0.124042824 -0.120372154 -0.193001136 -0.252117097
      -0.201324224 -0.203041956 -0.0825467259 -0.00691757491 0.066366896
      0.0648084879 0.0685826167 -0.128154919 -0.104576901 -0.057357844
      0.0388943814 0.0505936332 0.0629564747 -0.032112278 -0.0908614174
      -0.016547475 -0.0625457019 -0.00589711452 0.0568358563
      0.0850852579 0.126128107 0.0808737949 -0.0219978578 -0.116139606
      0.0586311258 -0.0425732099 -0.139997229 -0.0473513082 0.0982898101
      0.0781851411 0.0378414951 -0.027040869 -0.198115945 -0.0853852779
      -0.0846103355 -0.0497551188 0.0211314522 0.0875431225 0.150455579
      -0.0332348756 0.0685510114 0.019080434 -0.0474277511 -0.0587897748
      0.0462852754 0.0642808452 0.031615667 -0.0203390829 -0.00595969893
      0.180332005 0.209115997 0.154300958 0.121457472 -0.0459274873
      -0.230321422 -0.338346779 -0.31010139 -0.125188515 0.0697721764
      -0.0123828938 -0.019940041 -0.0612756945 -0.041348014
      -0.0388120785 -0.0674116611 -0.0198367927 -0.024707254
      0.0819201916 0.212714061 0.255739301 0.0381836258 -0.0340490006
      -0.226461142 -0.300339341 -0.271920711 -0.167507619 0.152882978
      0.271247655 0.248553231 0.12618874 -0.165710896 -0.281053454
      -0.284169436 -0.185755834 -0.0389102548 0.00980422366
      -0.00726502808 -0.0393866338 -0.128148526 -0.146801129
      -0.0995036066 -0.0491336919 0.0173974205 0.0532704331 0.118346199
      0.22822091 0.186663985 0.111131966 0.132338166 -0.123531759
      -0.0473410636 -0.084497042 -0.0141952587 -0.0380349681
      -0.127335846 -0.0519439541 -0.065350078 0.0574368127 0.0677763298
      0.0851929411 0.0844303593 -0.00693081878 0.0289908648
      -0.0910328776 -0.02830947 -0.0263535045 -0.0385136753
      -0.0476824753 -0.0632551387 0.0403396487 0.141894475 0.121615931
      -0.165419757 -0.125048369 -0.0847155079 -0.0257738493 0.0219515413
      0.0305923801 0.168257654 0.0683508217 -0.0853040293 -0.0677492097
      -0.0380227268 -0.00563613744 -0.00508742686 -0.040208336
      -0.169831261 -0.136379853 -0.032929495 -0.0520476364 -0.154189438
      -0.0925926492 -0.0396194793 -0.00489425706 0.000704176433
      -0.0334492512 -0.00920035131 0.0219927356 0.134943381
      -0.0514213443 0.0369377621 -0.0481509902 -0.00738504017
      -0.0327457823 -0.103192352 -0.034283828 -0.0135244625 0.0905207321
      0.177416801 0.272327662 0.0857082903 0.135864213 -0.0555651709
      -0.196591705 -0.294392884 -0.210546091 0.0229040533 -0.0583408661
      0.0208533984 -0.0201709941 0.0364474617 -0.000410278037
      -0.0672545135 -0.0659987926 0.0183745548 -0.0994972736 0.133249059
      0.153782517 0.123106606 0.20442161 0.120866947 -0.107090287
      -0.256812185 -0.213235557 -0.0725858957 0.073956944 0.135329992
      0.136308536 0.203892514 0.127588585 0.111159749 -0.138788953
      -0.18486838 -0.18459402 -0.192451611 -0.119928055 0.0400273204
      0.176755175 0.198059559 0.175730765 0.0658806264 -0.0875324458
      -0.172405571 -0.0115470365 0.0548704267 0.0960859284 0.190611199
      0.191608816 0.0736944452 -0.15076609 -0.235167921 -0.138328612
      -0.228064924 0.0297197476 0.139963254 0.15687409 0.190646142
      0.12590614 0.0574849248 -0.000290116237</_>
    <_>
      0.00356591772 0.0448413715 0.121852376 0.0488732159 0.00352458586
      0.0109536061 0.0507251322 0.0761955604 0.0470543131 -0.074484244
      -0.127737567 -0.1011962 0.00834908057 0.0851210579 0.12048801
      0.120761521 0.114697963 0.0966658741 -0.211862206 -0.0944329724
      0.053573072 0.173250645 0.0239075813 0.0294486731 0.0750467703
      0.0707555115 0.00519071147 -0.190081745 -0.0544364788
      -0.0236678775 0.0249447785 0.0732888803 0.117927022 0.0470229387
      0.113309301 0.046573028 -0.107068025 -0.218945175 -0.0864871219
      0.0647873282 0.182048753 0.188668907 0.0165412165 0.0362275355
      0.0411521345 -0.0525714271 -0.0921967402 3.20925119e-06
      0.157166645 0.101232626 0.0123446872 -0.141120881 -0.093039304
      -0.101336651 0.0155190332 -0.0219286066 0.0386336558 0.210522577
      0.231533036 0.157351583 -0.0366085544 0.0242535546 0.100844398
      -0.0603998415 0.0306901298 0.11774981 0.162031397 0.160706103
      -0.0421911739 -0.224303707 -0.231478125 -0.115416855
      -0.00670505874 -0.0269147903 0.0317212194 0.00975248404
      -0.0466210321 -0.153588384 -0.110494502 -0.094837293 -0.0887900442
      0.0147595303 -0.00719077466 0.00471201492 -0.0368732922
      -0.108529955 -0.089124538 -0.0179961491 0.078061007 0.0946097225
      -0.00156204519 0.11144302 0.127770066 0.0650047287 -0.101137184
      -0.120510049 -0.125325084 -0.077536352 0.00763077149 0.071431689
      -0.0558432005 0.012313487 -0.0260772351 -0.0723343566
      -0.0799978152 0.0271913093 0.114916451 0.100796439 -0.186414152
      -0.172328174 0.0313106962 0.158010766 0.0766201466 0.0492847972
      0.0622958355 0.0483995415 0.0493027791 -0.0647763982 -0.0796951652
      -0.098183006 0.0210663918 -0.0214290246 0.025629824 0.0307368804
      0.0516206585 0.0347916707 0.00764911436 -0.241836756 -0.161802515
      -0.0337437727 0.0341011733 0.0457457267 0.119288899 0.171275437
      0.173795894 0.0641054884 -0.0511945188 -0.124917582 -0.0572657362
      -0.0385060795 0.0464948304 0.123405434 0.200431332 0.154307961
      0.0611547269 0.0606918558 0.0329222381 -0.0154800657 -0.0615029596
      -0.0131608443 -0.166558087 -0.0994121879 -0.0937036574
      -1.92961443e-06 0.139194295 0.0875483677 0.0480841547
      -0.0504411049 -0.0950941071 -0.2423971 -0.205888197 -0.191899523
      0.0543941669 0.148319125 0.0273557156 -0.0961503163 -0.0856258646
      -0.0148212351 -0.0244874973 -0.0127661135 -0.0562667958
      0.0566546544 0.156315073 0.114032105 0.0219725184 -0.0462655276
      -0.0967435092 -0.134746283 -0.124403149 -0.0956139117 0.0232665949
      0.0940614417 0.113392211 -0.0388330258 -0.0914427266 -0.106008336
      -0.0544251874 0.00967345946 0.0400796682 -0.0952030271
      -0.096610412 0.0589349046 -0.0201168973 -0.00289438572
      -0.0417668708 0.0487327389 0.0112041086 -0.0892755315
      -0.00540535618 0.0786094069 0.0289760269 0.0132669015 0.03206788
      0.00204059086 0.0076676514 0.131045476 0.159047931 -0.217200518
      -0.158028007 0.0147349238 0.064354226 0.182908684 0.225984991
      0.188060716 0.112720847 -0.0141174262 0.01044212 -0.143268496
      -0.24458538 -0.150647044 -0.101872765 -0.0893992484 0.0311479028
      0.163116947 0.177307993 0.0350122154 0.00112481217 -0.10170842
      -0.12735711 -0.0965824276 -0.0291931592 -0.0219290126 0.0724295899
      0.069187656 0.0817295387 -0.0478924066 -0.0546483956 -0.0482681021
      -0.0892674029 -0.0937001631 -0.019830931 0.0441143215 0.136752725
      0.0827632546 0.0415030308 -0.0300281886 -0.107364394 -0.107367389
      -0.0985290557 -0.0831683502 -0.0492300764 0.00284385355
      0.0678421557 0.0634171516 0.0059711067 -0.0942267925 -0.0764489844
      -0.0590026341 -0.0540876091 -0.0454133786 0.00169164792
      0.0562393107 0.137786075 0.142415106 0.117163762 0.0984473377
      -0.0468481593 -0.116918795 -0.141294017 -0.133927375
      -0.00150989916 -0.00350791123 0.00960851647 -0.0628043935
      -0.0835750252 -0.115350477 -0.0806416124 -0.0943386853
      -0.0782516375 -0.0342808627 0.0771199912 0.102817774 0.107068263
      0.134463355 0.0253426041 -0.0624574944 -0.0988629237 -0.0851618126
      -0.225276783 -0.0684515014 -0.0846353397 -0.0256337225 0.074269183
      0.0578275621 0.144223422 0.126506075 -0.117696561 -0.2606318
      -0.174809113 -0.125816643 -0.0422065258 0.140134886 0.299495399
      0.27550754 0.203485847 -0.117851205 -0.187807634 -0.100602627
      -0.0470932834 -0.0316567421 0.10664282 0.104488865 0.17815195
      0.0476724803 -0.0529827252 0.0409086458 0.0715075582 0.00718106097
      -0.0543925166 0.0700905472 0.282278627 0.316048473 0.194684535
      0.112560682</_>
    <_>
      -0.0814441219 -0.0333736688 -0.0259340331 -0.0339996479
      0.00691787759 0.0146573475 0.0347229652 0.0462699793 0.00816345867
      -0.117912404 -0.0484251305 0.00540807052 0.0306715593
      0.00957358629 0.0562486239 0.0607476309 0.0541360602 -0.0666914731
      -0.0175535735 0.0243889969 0.00362806674 -0.0066572167
      0.000334352313 0.0234502032 0.0318764225 0.076177299 0.00553292502
      -0.0770092905 0.0379367582 -0.00406116433 0.062557362 0.0086389631
      0.116363227 0.0391822457 0.0691689327 -0.0242886487 -0.116510406
      -0.0264559798 0.0283551551 0.0632452145 0.049938783 0.0149238743
      0.0304822009 -0.00448887423 -0.0653180927 -0.0260003004
      0.0137346769 0.0828024223 0.0840095356 -0.0553457029 -0.123674817
      -0.0674275309 -0.0795530677 -0.0766467005 0.0594038814
      0.0960200951 0.0346781462 0.064607136 0.0883671343 0.0345335416
      0.0419049151 0.0824775547 -0.00730596483 0.0760837793 0.0323531777
      0.0997227654 0.0679447427 -0.0390391424 -0.155754551 -0.0783628821
      -0.0874126256 0.0283931028 -0.0105469665 -0.0153497085 0.05682927
      0.0190455914 -0.0807629675 -0.0875650123 -0.0630211979
      -0.043543186 -0.0285087954 -0.115694411 -0.0755782798 0.0532594956
      0.0333895609 0.0347191691 -0.00487782713 -0.01237641 0.00800428167
      0.00665142946 -0.0187545102 0.0293341726 0.105619542 0.0293565933
      -0.0945903137 -0.137023419 -0.0654238388 -0.0350807644
      0.0355157293 -0.0563626736 -0.0554279089 0.0695322379 0.0174849834
      -0.0384909213 -0.064026311 -0.046858184 0.0116273854 0.0622443892
      -0.00568248564 0.0332708731 -0.0282632336 -0.00362127251
      -0.0554759316 -0.00183756289 -0.0513732284 0.0229100455
      0.0211880524 0.0169178843 0.0561321974 0.000714683381 0.0284260586
      -0.0265475772 0.019912079 -0.10369847 -0.0447598957 -0.0498348214
      0.0460523702 -0.0663815066 -0.121797264 -0.144847393 -0.158646286
      -0.0168075319 0.0517227612 0.10617622 0.129353955 0.0670355856
      0.030452596 0.0056056967 -0.0255635194 -0.0845444649 -0.0412632897
      -0.0913132876 0.00748336734 0.0764668062 0.175998881 0.13765125
      -0.00514415046 -0.0668017715 -0.112139322 -0.0490534231
      -0.0820016488 -0.0400465392 -0.00809079036 0.12995553 0.0975486487
      0.0660738423 -0.0640339181 -0.126999795 -0.0950147286
      -0.0599927008 -0.092696026 -0.0272169318 0.159943774 0.173166618
      0.0362646207 -0.0449355952 -0.0877849609 -0.0819981992
      -0.117065705 -0.0888871029 0.020588303 0.0828878433 0.111381128
      0.0905332193 -0.0323381014 -0.0738941282 -0.0758267641
      -0.0819559842 -0.116346017 -0.0660773516 0.0431679338 0.0366209485
      0.0800091326 -0.0200785063 -0.0581020042 -0.064311929
      -0.00558248674 0.0170014258 0.0441260561 -0.0540129729
      -0.0487278439 0.0333305262 -0.0363314189 -0.0216717683
      -0.0136734936 0.028554637 0.0509685017 0.0699748993 0.00159193482
      0.0128318351 0.0571763255 -0.0220272504 -0.000980916317
      0.00373921474 0.0589132234 0.0455855206 0.0547361709 -0.0577670336
      -0.117495842 0.00105532259 -0.0399148464 0.0563999675 0.0542093925
      0.129308209 0.150261134 0.156636834 -0.00112848449 -0.200928479
      -0.208999217 -0.256887347 -0.210047141 -0.0674834624 0.0922157168
      0.213812798 0.207686782 0.166897163 0.0356522016 -0.0257076677
      -0.0842171907 -0.108078562 -0.0997277871 -0.046829842 0.065482527
      0.11711894 -0.0690896586 -0.159368858 -0.18118763 -0.14657031
      -0.0951563492 -0.0524536744 0.0150994444 0.0786121488 0.124242693
      0.181302309 0.0214922559 -0.0389388725 -0.0699129477 -0.0894388184
      -0.064844951 -0.0877036229 0.00393499294 0.11222361 0.0421922691
      0.144502997 0.0970457569 0.0149304029 -0.0534575284 -0.0568817221
      -0.11957489 -0.118987553 -0.0810232759 -0.0197034199 0.140533954
      0.130764127 0.0670268238 0.0608029738 0.00319341617 -0.0367445648
      -0.076113686 -0.176555291 0.139929235 0.105722308 0.0749928281
      0.0141978515 -0.0284713339 -0.0158989057 -0.0851996988
      -0.127810538 0.0400295109 0.00225029769 0.0982885808 0.0536968298
      0.0681302324 0.0852802321 0.0726723373 0.0296608415 -0.0128457807
      -0.0602719337 -0.150099933 -0.1026031 0.00828291383 0.0662286729
      0.0849671066 0.100812793 0.113039717 0.064973399 -0.122237414
      -0.172195897 -0.244570255 -0.163758099 0.0479207709 0.121845707
      0.188413769 0.184448645 0.145551249 0.059254583 -0.11776907
      -0.000245393778 0.000881419284 0.0618052557 0.114092842
      0.176681101 0.20592466 0.0719598308 -0.000103096747 -0.0503788143
      -0.0323384181 0.00417247834 0.0667094439 0.170178339 0.206432641
      0.222358674 0.112872891 0.066249758</_>
    <_>
      -0.00577987125 0.053808935 0.0511835851 0.0113482997 -0.012796456
      0.00928059779 0.0494562984 0.062036518 0.0276697706 -0.135878071
      -0.0447212085 -0.00794658065 0.00332526257 0.0555633493
      0.0696792528 0.0945376158 0.105202764 0.0482325219 -0.129647002
      -0.120760448 -0.0508494265 0.0711871982 0.00536938896
      0.00124010514 0.0584771484 0.0677598119 0.0373186171 -0.0994032994
      -0.122203693 0.0355647728 0.0350491926 0.0769263133 0.0794723704
      0.0997532085 0.12993139 -0.0118895164 -0.126574174 -0.0393392593
      0.0324091725 0.0261935089 0.0965710953 0.0973931104 0.0703970343
      0.0701084211 -0.0199372936 -0.12114758 0.0604203492 0.0989630148
      0.0696638301 0.0518059507 0.026088696 0.0182077214 -0.0251320489
      -0.198475406 -0.040191289 -0.0154484641 0.0732335001 0.0532993972
      0.103126623 0.0934635997 0.0718883276 0.0807177499 -0.0183992535
      -0.0602712259 -0.0149110043 0.106519982 0.0495450087 0.0502882488
      0.00836970191 0.00427263835 -0.0543237813 -0.150888428
      -0.0314098783 0.101739198 0.106906958 0.0403471291 0.0192664601
      0.0231076665 0.000320468796 -0.0877273083 -0.147131324
      0.0728475228 0.0809036344 0.0322239548 0.0118924323 0.0103482855
      0.0312827528 -0.0776557773 -0.0277146753 -0.00938518811
      -0.0342853963 0.0449953973 0.0932615474 0.0595931038 0.0248887427
      0.0142372455 -0.0860798955 -0.146062464 -0.0708858967 0.0922115669
      0.0427218601 0.0375545546 0.021438485 0.0184553936 -0.0756262764
      -0.108991481 -0.0536379591 0.0118349828 -0.0734973177 -0.131300777
      -0.0521254018 0.0382489525 0.0117576383 0.0192356259 0.044340957
      0.0665976703 0.0989794061 -0.000516537053 -0.0380523019
      0.00847147219 0.0285637099 0.0172895715 0.0295674205 0.0606401078
      0.0821023881 0.0765486509 -0.0203601401 -0.142968193 -0.112018108
      -0.0250132568 -0.00621321797 0.0247240774 0.0679012612 0.108838558
      0.0750816986 0.0403427631 0.00409041252 -0.0664919317
      -0.0203452408 -0.0533930883 -0.0622160919 -0.0180856604
      0.0502409711 0.148447558 0.0136762979 0.0455157235 0.0399022512
      -0.00187949929 -0.0225794166 -0.00213061552 -0.000339209888
      -0.00358321704 0.00955614541 0.0180761702 0.0884612501
      0.0320690461 -0.0228602998 -0.0394265987 -0.0849396884
      -0.0679087937 -0.0701979622 -0.0322421603 0.0949002504 0.114037916
      0.0359861217 -0.0596152917 -0.13584429 -0.126900524 -0.105740145
      -0.0314100832 0.0444251746 0.0969069004 0.13839145 0.0659020767
      -0.0562846884 -0.156208977 -0.203240842 -0.162163854 -0.0688889101
      0.0170524567 0.0637924597 0.0356818363 -0.00561895035
      -0.0305917077 0.00050179282 -0.0506859235 -0.0613414757
      -0.0623365454 0.0482257977 0.0232672151 -0.0443281829
      -0.0179832485 0.0138557656 0.0261163879 -0.0653410852
      -0.0473397002 -0.034736339 0.0445500202 0.0600345097 0.0738019273
      0.0265422855 -0.0189185366 -0.035959173 -0.0791584849
      -0.0669855699 -0.00980096217 0.0303370319 -0.0749048442
      -0.0937438384 -0.0390690602 0.0243324731 0.0197784454 0.016040748
      0.0118582994 -0.00272495043 -0.00165833568 -0.0300304461
      -0.159036502 -0.110381432 -0.0494913198 -0.0539047718
      -0.0131065184 0.0587486774 0.138509363 0.036373049 0.0452006646
      0.0296267588 -0.0148039982 -0.0618661754 -0.124143623 -0.140880406
      -0.0925906301 -0.0111271711 0.0950307474 0.0548982583
      -0.00378177944 0.000723845093 -0.00851622596 -0.0353494473
      -0.0145015055 0.0081505049 0.0475103557 0.0621969067 0.142712817
      0.0887136832 0.0469361991 -0.00314552453 -0.0952001363
      -0.0936687589 -0.0954399258 -0.0779693648 0.0617848523 0.178969309
      0.147632331 0.0950166956 -0.00778966211 -0.138944954 -0.163904756
      -0.143626884 -0.0904039964 0.0671437755 0.164772093 0.158302814
      0.133132309 0.0382541679 -0.0580503494 -0.137225404 -0.189022422
      -0.161536887 -0.0112358127 0.113800637 0.106238462 0.0601894371
      0.0206544306 -0.047571294 -0.0750063881 -0.127378166 -0.11856062
      -0.0403305814 -0.037222892 0.0563442856 0.0625670627 0.107855611
      0.0686518624 0.0402100123 -0.161220297 -0.205743909 -0.12356139
      -0.0407165773 0.0361334272 0.0826897472 0.058401376 0.053297054
      -0.0367570147 -0.043613553 -0.0787064284 -0.0540924296
      -0.0641286448 -0.0379136167 -0.0494362302 0.0163533911
      0.0947197676 0.109976657 0.0295688771 -0.0134983882 -0.0581179336
      -0.0548619963 -0.00423013512 0.0296327639 0.068892695 0.124918699
      0.0860768333 -0.0198015831 -0.106788315 -0.0890074745
      -0.0504307114 -0.0237811413 0.0082451012 0.00707301125
      0.0744553506 0.12632136 0.0496004373 -0.00134900352 -0.0351592377</_>
    <_>
      -0.148066267 0.00904038362 0.12136963 0.0113827335 0.0341191515
      -0.039308738 -0.023891896 0.0176986698 -0.0465961173 -0.155033648
      0.0599022321 0.0492576174 0.0601221696 0.115122683 0.0274677295
      0.0412831828 0.0417933352 -0.0921107754 -0.0822647661
      0.00853004493 0.116863109 -0.0392810963 -0.181588337 -0.123730443
      -0.0681510419 -0.0375753604 -0.0401194915 -0.0680636838
      0.0510493852 -0.0204873011 0.024557136 0.100448109 0.009990016
      0.00915729627 0.0922742859 -0.151591465 -0.20927915 -0.0493286476
      -0.0515157022 0.0227437764 0.289434344 0.165412411 0.0585374311
      0.0643062666 -0.0344871022 -0.0614615679 0.0893382356 0.0310686994
      -0.0450385548 0.00825492479 -0.104093216 -0.192619741 -0.120917588
